
\data\
ngram 1=2183
ngram 2=4107
ngram 3=14

\1-grams:
-1.279086	</s>
-99	<s>	-0.2668658
-3.514614	AB	-0.3008972
-3.514614	ABBA	-0.3008972
-3.514614	ABDI	-0.3008972
-3.514614	ABDUL	-0.3008972
-3.514614	ABDULLAH	-0.3008972
-3.213584	ABDURRAHMAN	-0.3741969
-3.514614	ABG	-0.2775673
-3.514614	ABSENNYA	-0.3008308
-3.213584	ABU	-0.300432
-2.912554	ACARA	-0.3756056
-2.912554	ACEH	-0.3109959
-2.861402	ADA	-0.2950128
-2.400671	ADALAH	-0.3027543
-3.338523	ADANYA	-0.3007643
-3.514614	ADAPUN	-0.3008308
-3.514614	ADI	-0.3008972
-3.514614	ADIORA	-0.2775673
-3.514614	ADISUSANTO	-0.3008972
-3.514614	ADIYAKSA	-0.2952821
-3.514614	ADLANI	-0.2952821
-3.514614	ADNAN	-0.3008972
-3.514614	ADVOKASI	-0.3008972
-3.116674	AFGANISTAN	-0.3380183
-3.514614	AFP	-0.3008308
-3.514614	AGAMA	-0.3006979
-3.213584	AGENDA	-0.3003655
-3.514614	AGIL	-0.2997666
-3.514614	AGNIEZKA	-0.2993003
-3.338523	AGUS	-0.2951475
-3.514614	AGUSTINE	-0.3008308
-3.514614	AGVA	-0.2775673
-3.213584	AHLI	-0.3005649
-3.514614	AHQAM	-0.3007643
-3.514614	AI	-0.2775673
-3.514614	AIR	-0.3008972
-3.514614	AJWAR	-0.3008972
-2.435433	AKAN	-0.305647
-3.514614	AKEN	-0.3007643
-3.514614	AKHIR	-0.2964243
-3.514614	AKHMAD	-0.3008972
-3.213584	AKIBAT	-0.2971618
-3.514614	AKIBATNYA	-0.3008972
-3.514614	AKTIVIS	-0.3008972
-3.514614	AKTRIS	-0.3008972
-2.970546	AL	-0.300166
-3.514614	ALAM	-0.3008972
-3.514614	ALASAN	-0.3008972
-3.338523	ALASANNYA	-0.2767957
-3.514614	ALAT	-0.3007643
-3.338523	ALBUM	-0.3007643
-3.514614	ALEKX	-0.3008972
-3.514614	ALEX	-0.3008972
-3.338523	ALEXANDER	-0.3007643
-3.514614	ALFA	-0.300299
-3.514614	ALI	-0.2952821
-3.514614	ALIMUDDIN	-0.3008972
-3.514614	ALMARHUM	-0.300565
-3.514614	ALQAEDA	-0.2952821
-3.514614	ALQURAN	-0.3007643
-3.514614	AMAZON	-0.3008972
-3.514614	AMEDEO	-0.3008972
-2.970546	AMERIKA	-0.3169933
-3.514614	AMPUH	-0.2775673
-3.514614	ANAK	-0.3008308
-3.514614	ANAM	-0.3008308
-3.514614	ANCAMAN	-0.2984328
-3.514614	ANDA	-0.3006314
-3.514614	ANDRAE	-0.3008308
-3.514614	ANDYANTO	-0.2999663
-2.970546	ANGGOTA	-0.2996335
-3.514614	ANGIE	-0.3000994
-3.514614	ANGKA	-0.3008972
-3.514614	ANGKASA	-0.3006979
-3.514614	ANGKATAN	-0.3008308
-3.514614	ANGLO	-0.3008972
-3.514614	ANJLOK	-0.2938669
-2.815644	ANTARA	-0.4454949
-3.213584	ANTARANYA	-0.300299
-3.514614	ANTHRAX	-0.3008972
-3.514614	ANUMERTA	-0.2997
-3.514614	ANWAR	-0.2997666
-3.037493	APA	-0.3505861
-3.213584	APAKAH	-0.3002325
-3.338523	APALAGI	-0.300166
-3.514614	APARAT	-0.3007643
-3.514614	APBN	-0.2775673
-3.116674	API	-0.3368073
-3.514614	AQSA	-0.3008308
-3.514614	AQUINO	-0.2775673
-3.514614	ARABIA	-0.2775673
-3.338523	ARAH	-0.29582
-3.514614	ARANTXA	-0.3008972
-3.338523	ARIF	-0.2951475
-3.514614	ARIFIN	-0.3008308
-3.514614	ARITONANG	-0.2775673
-3.514614	ARQAM	-0.3008972
-3.514614	ARROYO	-0.3003655
-3.514614	ARRYMAN	-0.2993003
-3.514614	ARTHO	-0.3008972
-3.514614	ARUS	-0.3008308
-3.514614	ARY	-0.3008972
-2.912554	AS	-0.3100106
-3.338523	ASAP	-0.3007643
-3.514614	ASAS	-0.3008972
-3.338523	ASIA	-0.277357
-3.338523	ASING	-0.2727046
-3.514614	ASPEK	-0.3008972
-3.514614	ASSIDIQQIAH	-0.3008972
-3.514614	ASTAGFIRULLAH	-0.2775673
-3.514614	ASTON	-0.3008972
-3.514614	ASURANSI	-0.2998998
-3.514614	ASYRAF	-0.2775673
-3.514614	AT	-0.3008972
-3.514614	ATAL	-0.3008972
-3.037493	ATAS	-0.3002325
-2.585195	ATAU	-0.2902066
-3.514614	ATRAKSI	-0.3008308
-3.514614	AUDI	-0.3008308
-3.514614	AUSTRIA	-0.3006314
-3.514614	AVI	-0.3008972
-3.514614	AVTUR	-0.2993003
-3.514614	AWAN	-0.2938669
-3.338523	AWARD	-0.2714981
-3.514614	AYAM	-0.3007643
-3.514614	AZAM	-0.3008308
-3.514614	AZIZ	-0.2952821
-3.514614	AZMAN	-0.3008972
-3.514614	AZWAR	-0.3008308
-3.213584	B	-0.2994335
-3.514614	BAASYIR	-0.3008972
-3.514614	BADA	-0.3004985
-3.514614	BADAI	-0.3008972
-3.338523	BADAN	-0.300432
-3.514614	BAGAIMANA	-0.3008308
-3.514614	BAGI	-0.300565
-3.514614	BAGIAN	-0.300432
-3.213584	BAHAN	-0.397475
-3.338523	BAHKAN	-0.300166
-3.514614	BAHU	-0.3008972
-2.815644	BAHWA	-0.2968938
-3.514614	BAIHAQI	-0.2938669
-3.213584	BAKAR	-0.3004985
-3.514614	BALIK	-0.3007643
-3.514614	BALKAN	-0.3008972
-3.514614	BANDANG	-0.2775673
-3.037493	BANDARA	-0.2931914
-3.514614	BANDUNG	-0.2775673
-3.338523	BANGKU	-0.3007643
-3.338523	BANGSA	-0.2986331
-3.338523	BANJIR	-0.2774271
-3.213584	BANK	-0.3006314
-3.213584	BANTUAN	-0.2997666
-3.514614	BANTUANNYA	-0.3008972
-3.037493	BANYAK	-0.350786
-3.514614	BANYUMAS	-0.2775673
-3.514614	BANYUWANGI	-0.3008308
-3.514614	BARAK	-0.3008308
-3.514614	BARANG	-0.3008972
-3.338523	BARAT	-0.2765851
-3.514614	BARENG	-0.3008972
-3.514614	BARNA	-0.3008972
-3.514614	BARREL	-0.2775673
-3.514614	BARTHEZ	-0.2775673
-3.514614	BARTOK	-0.3008972
-3.213584	BARU	-0.2948782
-3.514614	BASIS	-0.3008972
-3.514614	BATU	-0.2989001
-3.338523	BAWAH	-0.3004985
-3.514614	BAYERN	-0.3008972
-3.338523	BAYI	-0.3006979
-3.514614	BCA	-0.3008972
-3.514614	BEBAS	-0.2986331
-3.338523	BEBERAPA	-0.3006979
-3.338523	BEGITU	-0.3007643
-3.514614	BEHARI	-0.3008972
-3.514614	BEIJING	-0.3003655
-3.514614	BEJBEL	-0.2775673
-3.514614	BEKASI	-0.3008308
-3.213584	BEKERJA	-0.3954764
-3.514614	BELAKA	-0.2993003
-3.514614	BELAKANG	-0.3008972
-3.514614	BELAS	-0.3008972
-3.514614	BELFAS	-0.3008972
-2.774251	BELUM	-0.3206429
-3.338523	BENAR	-0.3006979
-3.514614	BENCANA	-0.3008972
-3.514614	BENDERA	-0.3008308
-3.338523	BENTUK	-0.3006314
-3.116674	BERADA	-0.6918069
-3.037493	BERANGKAT	-0.2985664
-3.514614	BERAPA	-0.2775673
-3.514614	BERARTI	-0.2775673
-3.514614	BERAWAL	-0.3008308
-3.514614	BERBAGAI	-0.3008308
-3.514614	BERBAGI	-0.3008972
-3.514614	BERBAHASA	-0.300565
-3.514614	BERBALIK	-0.2998332
-3.338523	BERBEDA	-0.4536586
-3.514614	BERBICARA	-0.2938669
-3.514614	BERBOBOT	-0.2775673
-3.338523	BERBUAT	-0.3004985
-3.514614	BERDASARKAN	-0.3008972
-3.514614	BERDEMONSTRASI	-0.3008972
-3.514614	BERFUNGSI	-0.3004985
-3.338523	BERHASIL	-0.3007643
-3.514614	BERINGIN	-0.2938669
-3.116674	BERITA	-0.3000994
-3.514614	BERITAHUKAN	-0.3006979
-3.213584	BERJALAN	-0.2922438
-3.514614	BERJANGKIT	-0.2938669
-3.338523	BERKAITAN	-0.2991669
-3.514614	BERKAT	-0.3008308
-3.514614	BERKEDOK	-0.300565
-3.514614	BERKEKUATAN	-0.3008972
-3.514614	BERKELANA	-0.2938669
-3.514614	BERLINDUNG	-0.2938669
-3.338523	BERMAIN	-0.300432
-3.514614	BERMALAM	-0.300565
-3.514614	BERMOTOR	-0.2775673
-3.514614	BERMULA	-0.2986331
-3.338523	BERNARD	-0.3007643
-3.514614	BERNOMOR	-0.3006314
-3.514614	BEROBAT	-0.2995668
-3.514614	BERPELAT	-0.3008308
-3.338523	BERPENDAPAT	-0.300166
-3.514614	BERPENGARUH	-0.2998332
-3.514614	BERPIDATO	-0.2938669
-3.514614	BERPROMOSI	-0.3000329
-3.514614	BERSALAMAN	-0.2993003
-3.116674	BERSAMA	-0.2754598
-3.514614	BERSAMAAN	-0.2993003
-3.514614	BERSEDIA	-0.3006314
-3.514614	BERSEMBUNYI	-0.2938669
-3.338523	BERSENJATA	-0.2774271
-3.514614	BERSIKAP	-0.3008972
-3.514614	BERTABURAN	-0.3008308
-3.514614	BERTEDUH	-0.2938669
-3.514614	BERTENAGA	-0.3008972
-3.514614	BERTINDAK	-0.2775673
-3.514614	BERTURUT	-0.3008972
-3.514614	BERUCAP	-0.2984328
-3.338523	BERUPA	-0.2996334
-3.338523	BERWARNA	-0.3007643
-3.514614	BESAR	-0.2775673
-3.514614	BESUK	-0.2984328
-3.514614	BHAKTI	-0.2775673
-3.514614	BI	-0.3006979
-3.514614	BIDANG	-0.3008972
-3.514614	BIGXU	-0.2775673
-3.514614	BILATERAL	-0.3003655
-3.514614	BIMAS	-0.3008972
-3.338523	BIN	-0.3007643
-3.514614	BIRD	-0.2986331
-3.514614	BIRU	-0.2775673
-2.861402	BISA	-0.2980987
-3.514614	BISHOP	-0.3008972
-3.514614	BISNISNYA	-0.2775673
-3.514614	BLACK	-0.3008972
-3.514614	BLESZINSKY	-0.3007643
-3.338523	BOEDIONO	-0.4536586
-3.514614	BOGOR	-0.3007643
-3.338523	BOLA	-0.3007643
-3.514614	BOLEH	-0.3008972
-3.514614	BOLTON	-0.3008972
-3.514614	BOM	-0.3008972
-3.514614	BOX	-0.2984328
-3.514614	BOYCE	-0.3004985
-3.514614	BOYKE	-0.3008972
-3.338523	BPPN	-0.2765851
-3.514614	BQ	-0.2964243
-3.514614	BRAMHS	-0.2952821
-3.514614	BRAXTON	-0.300299
-3.338523	BRIGJEN	-0.3007643
-3.514614	BROMARTANI	-0.2775673
-3.514614	BUAH	-0.3007643
-3.514614	BUATAN	-0.3008972
-3.514614	BUDIMAN	-0.3008308
-3.037493	BUKAN	-0.2997001
-3.514614	BUKANLAH	-0.3008972
-3.514614	BUKIT	-0.3008972
-3.514614	BUKTI	-0.3008308
-3.213584	BUKU	-0.2771466
-3.213584	BULAN	-0.300432
-3.514614	BUNGA	-0.2938669
-3.514614	BUNGSU	-0.3006979
-3.514614	BUNKER	-0.3008308
-3.514614	BUNUH	-0.3006314
-3.514614	BUPATI	-0.3004985
-3.514614	BURSA	-0.3008308
-3.514614	BURUNG	-0.3008972
-3.338523	BUS	-0.3007643
-3.514614	BUSANA	-0.3008308
-3.514614	BUSH	-0.3000994
-3.514614	BUWONO	-0.2775673
-3.514614	BUYUNG	-0.3008972
-3.514614	BYPASS	-0.3008972
-3.338523	CABANG	-0.476922
-3.514614	CALON	-0.2986331
-3.514614	CALTEX	-0.3004985
-3.514614	CANIO	-0.3008972
-3.514614	CAO	-0.3008972
-3.514614	CARBONI	-0.2952821
-3.514614	CB	-0.2964243
-3.514614	CC	-0.2997666
-3.514614	CDMA	-0.2997666
-3.514614	CEDERA	-0.3008972
-3.514614	CEKO	-0.3006979
-3.514614	CELCIUS	-0.2775673
-3.514614	CENDRAWASIH	-0.3006314
-3.514614	CENTER	-0.2998998
-3.514614	CENTRA	-0.3008972
-3.213584	CEPAT	-0.3006314
-3.514614	CERAH	-0.3008972
-3.514614	CETAK	-0.2775673
-3.514614	CF	-0.3008972
-3.514614	CGI	-0.2952821
-3.514614	CHAERUDDIN	-0.3007643
-3.514614	CHAERUL	-0.3008972
-3.514614	CHAGQUAN	-0.3006314
-3.514614	CHANGE	-0.2775673
-3.514614	CHAUVINISME	-0.2775673
-3.514614	CHOPIN	-0.3008972
-3.514614	CHRIS	-0.3008972
-3.514614	CIJANTUNG	-0.3008972
-3.514614	CINA	-0.3008972
-3.514614	CINTA	-0.2964243
-3.514614	CLUB	-0.3008972
-3.514614	CNRM	-0.2775673
-3.514614	COIMBRA	-0.3008972
-3.514614	COLLEGE	-0.3008972
-3.514614	COM	-0.3007643
-3.338523	CONTOH	-0.296223
-3.514614	COWPENS	-0.3006979
-3.514614	CPM	-0.3008972
-3.514614	CPO	-0.2998998
-3.213584	CQ	-0.3000994
-3.514614	CRAWFORD	-0.3008972
-3.514614	CS	-0.2775673
-3.514614	CUACA	-0.2938669
-3.514614	CUNGKILAN	-0.3008972
-3.514614	CV	-0.3008972
-3.514614	DAHLAN	-0.2775673
-2.435433	DALAM	-0.3268409
-3.338523	DAMAI	-0.2991669
-3.338523	DAMPAK	-0.3007643
-3.514614	DAMRI	-0.3008972
-1.881146	DAN	-0.286467
-3.514614	DANA	-0.3008972
-3.514614	DANCE	-0.2775673
-3.338523	DANGDUT	-0.3007643
-3.514614	DANSA	-0.3008972
-3.037493	DAPAT	-0.2998998
-3.338523	DARAH	-0.298366
-2.259342	DARI	-0.2912943
-3.514614	DARMAWAN	-0.3008972
-3.514614	DARUL	-0.3008972
-3.514614	DARUQUTNI	-0.3008972
-3.514614	DARUSSALAM	-0.2998998
-3.338523	DASAR	-0.2985663
-3.116674	DATANG	-0.4755248
-3.514614	DAUD	-0.3008972
-3.514614	DAVID	-0.3008308
-3.514614	DAVIDS	-0.2998998
-3.514614	DE	-0.3008972
-3.514614	DEBAT	-0.3008972
-3.338523	DEBITOR	-0.2727046
-3.514614	DEFOE	-0.2995668
-3.514614	DEKAT	-0.3008972
-3.338523	DELAPAN	-0.2974966
-3.514614	DEMIKIAN	-0.3000994
-2.400671	DENGAN	-0.2951476
-3.213584	DEPAN	-0.2997666
-3.514614	DEPARTEMEN	-0.3008972
-3.514614	DEPDIKNAS	-0.2775673
-3.514614	DERAJAT	-0.3008972
-3.514614	DERMAWAN	-0.2952821
-3.514614	DESA	-0.3008972
-3.514614	DETEKTOR	-0.3008972
-3.514614	DEWAN	-0.3007643
-3.514614	DHABI	-0.3008972
-3.514614	DHARMA	-0.3008308
-1.78626	DI	-0.3211716
-2.912554	DIA	-0.297965
-3.338523	DIADAKAN	-0.2937319
-3.514614	DIAWALI	-0.3008972
-3.514614	DIBACAKAN	-0.3008972
-3.514614	DIBAWA	-0.3008972
-3.514614	DIBERANGKATKAN	-0.3006979
-3.514614	DIBERLAKUKAN	-0.2938669
-3.514614	DIBICARAKAN	-0.3003655
-3.514614	DIBUDIDAYAKAN	-0.2999663
-3.514614	DICABUT	-0.2775673
-3.514614	DICALONKAN	-0.2997
-3.514614	DICAPAI	-0.3008308
-3.514614	DICIDUK	-0.2984328
-3.514614	DICOCOKKAN	-0.2993003
-3.514614	DICURIGAI	-0.3008972
-3.514614	DIDAMPINGI	-0.3006314
-3.514614	DIDERITA	-0.3008972
-3.514614	DIDIDIK	-0.2989001
-3.514614	DIDUDUKI	-0.3008972
-3.514614	DIDUGA	-0.3008308
-3.514614	DIDUKUNG	-0.3007643
-3.338523	DIGELAR	-0.300299
-3.338523	DIGUNAKAN	-0.297965
-3.514614	DIHADAPI	-0.3007643
-3.338523	DIHADIRI	-0.2995668
-3.514614	DIHAPUSKANNYA	-0.3008972
-3.514614	DIHUBUNGI	-0.2997
-3.514614	DIIKUTI	-0.2997
-3.338523	DIINGATKAN	-0.4749914
-3.514614	DIIRINGI	-0.3007643
-3.514614	DIIZINKAN	-0.3008972
-3.514614	DIJADIKAN	-0.3008308
-3.338523	DIKABARKAN	-0.300432
-3.338523	DIKATAKAN	-0.3006314
-3.514614	DIKATEGORIKAN	-0.300565
-3.514614	DIKDASMEN	-0.3008972
-3.514614	DIKEMBALIKAN	-0.3007643
-3.338523	DIKEMUDIKAN	-0.3006979
-3.514614	DIKEMUKAKAN	-0.3008308
-3.514614	DIKENALLAH	-0.3008972
-3.514614	DIKERJAKAN	-0.2997
-3.514614	DIKEROYOK	-0.3008972
-3.514614	DIKOORDINIR	-0.3008972
-2.861402	DILAKUKAN	-0.3281956
-3.514614	DILALUI	-0.2775673
-3.514614	DILANDA	-0.3008972
-3.514614	DILAPORKAN	-0.2995668
-3.514614	DILAPORKANNYA	-0.2984328
-3.514614	DILEPAS	-0.2997
-3.514614	DILEPASKAN	-0.2993003
-3.514614	DILIMPAHKAN	-0.2995668
-3.338523	DIMAKSUDKAN	-0.4749914
-3.514614	DIMANA	-0.3008308
-3.514614	DIMULAI	-0.3007643
-3.514614	DIN	-0.3008972
-3.514614	DINAS	-0.2989001
-3.514614	DINILAI	-0.3008972
-3.514614	DIOPERASI	-0.2775673
-3.514614	DIPACU	-0.2938669
-3.514614	DIPADU	-0.2993003
-3.514614	DIPERHATIKAN	-0.2775673
-3.338523	DIPERIKSA	-0.2948109
-3.514614	DIPERKIRAKAN	-0.2994336
-3.514614	DIPERLOMBAKAN	-0.2775673
-3.514614	DIPERLUKAN	-0.3006314
-3.514614	DIPERTANGGUNGJAWABKAN	-0.2775673
-3.514614	DIPERTIMBANGKAN	-0.2775673
-3.338523	DIPIMPIN	-0.3003655
-3.514614	DIPROSES	-0.3007643
-3.514614	DIRAWAT	-0.2938669
-3.514614	DIREKTORAT	-0.3008972
-3.213584	DIREKTUR	-0.3003655
-3.037493	DIRI	-0.2629576
-3.514614	DIRINGKUS	-0.3008972
-3.514614	DIRINTIS	-0.2997
-3.213584	DIRINYA	-0.2739077
-3.514614	DIRJEN	-0.3008972
-3.338523	DISAHKAN	-0.2763743
-3.514614	DISALAHPAHAMI	-0.2775673
-3.514614	DISAMBUT	-0.2997
-3.213584	DISAMPAIKAN	-0.2995668
-3.514614	DISBURSEMENT	-0.2998998
-3.514614	DISERBU	-0.2952821
-3.514614	DISERGAP	-0.2952821
-3.514614	DISIAPKAN	-0.300565
-3.338523	DISTRIK	-0.3006314
-3.514614	DISUKAI	-0.3004985
-3.514614	DISUMBANGKAN	-0.3008972
-3.338523	DISUSUL	-0.3006979
-3.514614	DITANDATANGANI	-0.3007643
-3.514614	DITANGANI	-0.2997
-3.514614	DITANGKAP	-0.2938669
-3.514614	DITANYA	-0.3008308
-3.338523	DITARIK	-0.2994335
-3.514614	DITAYANGKAN	-0.3008308
-3.338523	DITEMPATKAN	-0.2923793
-3.213584	DITEMUKAN	-0.2989001
-3.514614	DITERAPKAN	-0.2989001
-3.514614	DITODONG	-0.3008308
-3.514614	DITUJU	-0.2997
-3.514614	DITUNTUT	-0.3008308
-3.514614	DIUSULKAN	-0.3006314
-3.116674	DIWAKILI	-0.6976401
-3.514614	DKI	-0.2952821
-3.514614	DOKTER	-0.3008972
-3.514614	DOLLAR	-0.3004985
-3.514614	DONALD	-0.3008972
-3.514614	DOSEN	-0.3007643
-3.213584	DOT	-0.3006314
-3.514614	DOUBLE	-0.3008972
-3.514614	DOWNER	-0.2775673
-3.514614	DPP	-0.3008972
-3.213584	DPR	-0.3743372
-3.514614	DRAFT	-0.3007643
-3.514614	DRASTIS	-0.2775673
-2.536891	DUA	-0.3368766
-3.338523	DUDUK	-0.2923793
-3.514614	DUET	-0.3008972
-3.338523	DUKA	-0.2952821
-3.514614	DULU	-0.3006314
-3.514614	DUMAS	-0.3008308
-3.514614	DUNANT	-0.3008972
-3.213584	DUNIA	-0.300299
-3.514614	DUR	-0.2952821
-3.514614	DURI	-0.2775673
-3.514614	DZULHIJJAH	-0.3008308
-3.514614	E	-0.3008972
-3.514614	EDGAR	-0.3008972
-3.514614	EDINBURGH	-0.3008308
-3.514614	EDMON	-0.2993003
-3.514614	EDWARD	-0.3008972
-3.514614	EFFENDI	-0.2997666
-3.514614	EFRAIN	-0.3008972
-3.514614	EGGI	-0.3008972
-3.514614	EH	-0.3008972
-3.514614	EKONOMI	-0.300565
-3.514614	EKS	-0.3008308
-3.514614	EKSPLOITASI	-0.2775673
-3.514614	EKSPLORASI	-0.2952821
-3.514614	EKSTRA	-0.3007643
-3.514614	ELVY	-0.3008972
-3.514614	ELZA	-0.3008972
-3.514614	EMAS	-0.3008308
-3.514614	EMOI	-0.2775673
-3.037493	EMPAT	-0.2992336
-3.514614	EMVAL	-0.3006979
-3.213584	ENAM	-0.300299
-3.514614	ENDRIARTONO	-0.3007643
-3.514614	ENGGANO	-0.3004985
-3.514614	EQUITY	-0.3008972
-3.514614	ERA	-0.3008308
-3.514614	ERIKSSON	-0.3008972
-3.514614	ESTU	-0.3008972
-3.514614	ETNIS	-0.300299
-3.514614	EXCITING	-0.3006979
-3.514614	EXECUTIVE	-0.2775673
-3.514614	EXHAUST	-0.2775673
-3.514614	EXPLORER	-0.3004985
-3.514614	EXXON	-0.3006979
-3.514614	EXXONMOBIL	-0.3008972
-3.514614	F	-0.2775673
-3.514614	FABIEN	-0.3008972
-3.514614	FAILURE	-0.2775673
-3.514614	FAQIH	-0.3008308
-3.338523	FARID	-0.3007643
-3.514614	FAROQ	-0.2993003
-3.514614	FASHION	-0.3008972
-3.338523	FATWA	-0.2770063
-3.514614	FAULT	-0.3006314
-3.514614	FAWZY	-0.2775673
-3.514614	FBR	-0.2775673
-3.514614	FEITH	-0.2775673
-3.514614	FELIX	-0.3008972
-3.514614	FELX	-0.3000329
-3.514614	FERGUSON	-0.300299
-3.514614	FEROZA	-0.2775673
-3.213584	FILIPINA	-0.2760931
-3.514614	FILM	-0.2998998
-3.514614	FILSAFAT	-0.3008972
-3.514614	FINAL	-0.3004985
-3.514614	FIQH	-0.3008972
-3.514614	FIREWORKS	-0.3008972
-3.514614	FITZPATRICK	-0.3008308
-3.514614	FOIL	-0.3008972
-3.514614	FORDEM	-0.3003655
-3.514614	FORENSIK	-0.2998998
-3.514614	FORUM	-0.3008972
-3.514614	FOXNEWS	-0.2993003
-3.116674	FRAKSI	-0.2619417
-3.514614	FRANJO	-0.3008972
-3.514614	FRANKLIN	-0.3008308
-3.514614	FRESHENER	-0.2952821
-3.514614	FRETILIN	-0.2989001
-3.514614	FUNGSIONARIS	-0.3008972
-3.338523	FX	-0.3006314
-3.514614	G	-0.3008972
-3.514614	GA	-0.2775673
-3.514614	GAGAL	-0.2993003
-3.514614	GAIZKA	-0.3008972
-3.514614	GALAXI	-0.3008972
-3.338523	GAM	-0.2700031
-3.514614	GAMBAR	-0.3008972
-3.514614	GAMBIR	-0.2995668
-3.514614	GANDHI	-0.2775673
-3.514614	GANGGUAN	-0.2995002
-3.514614	GANTI	-0.3008308
-3.514614	GARLAND	-0.2775673
-3.338523	GAWANG	-0.3007643
-3.514614	GCG	-0.2775673
-3.514614	GDE	-0.3008972
-3.213584	GEDUNG	-0.3006314
-3.514614	GELANDANG	-0.3008972
-3.338523	GELENG	-0.300432
-3.514614	GENETIKA	-0.2775673
-3.514614	GENTAR	-0.3008972
-3.514614	GEOLOGI	-0.3008308
-3.514614	GERAK	-0.3007643
-3.213584	GERAKAN	-0.3002325
-3.514614	GERBONG	-0.3008972
-3.338523	GERILYA	-0.296223
-3.338523	GERUNG	-0.2951475
-3.514614	GIJZELING	-0.2993003
-3.338523	GILIMANUK	-0.2763743
-3.514614	GILIRAN	-0.3008308
-3.514614	GIZJELING	-0.2998998
-3.514614	GLAS	-0.3008972
-3.514614	GLOBAL	-0.3003655
-3.338523	GOL	-0.3007643
-3.514614	GOLD	-0.3006314
-3.514614	GOLDSTEIN	-0.3008972
-3.514614	GOLKAR	-0.3008972
-3.514614	GONG	-0.3000994
-3.514614	GONZALES	-0.3008308
-3.514614	GORAN	-0.3008972
-3.514614	GRANAT	-0.3007643
-3.514614	GROWTH	-0.2775673
-3.514614	GRUP	-0.3008972
-3.338523	GUGATAN	-0.2982323
-3.514614	GUGUR	-0.2938669
-3.514614	GUMAY	-0.3008308
-3.514614	GUMPALAN	-0.3008972
-3.514614	GUNA	-0.3008972
-3.514614	GUNNAR	-0.3008972
-3.514614	GUNUNG	-0.3008972
-3.514614	GUS	-0.3008972
-3.514614	GYANENDRA	-0.2775673
-3.514614	GYMNASTIAR	-0.3004985
-3.514614	H	-0.3008972
-3.514614	HA	-0.3008972
-3.514614	HABIBIE	-0.3007643
-3.514614	HADAR	-0.3008972
-3.213584	HADIR	-0.2902065
-3.514614	HAFIZHAH	-0.3008972
-3.514614	HAI	-0.3008972
-3.338523	HAJI	-0.3007643
-3.514614	HAKIM	-0.2964243
-2.861402	HAL	-0.5600011
-3.514614	HALAMAN	-0.3008972
-3.514614	HALFVOLLEY	-0.3008972
-3.514614	HALIMAH	-0.3008972
-3.514614	HAMAS	-0.2952821
-3.514614	HAMBATAN	-0.2775673
-3.514614	HAMENGKU	-0.3008972
-3.514614	HAMPIR	-0.3008972
-3.338523	HAMZAH	-0.3006314
-2.912554	HANYA	-0.2968268
-3.514614	HARGA	-0.3008972
-2.861402	HARI	-0.3044359
-3.514614	HARIAN	-0.3008972
-3.514614	HARINYA	-0.2993003
-3.514614	HARRY	-0.3008972
-2.912554	HARUS	-0.3000994
-3.514614	HASAN	-0.3008972
-3.514614	HASANUDDIN	-0.3008972
-3.338523	HASIL	-0.3007643
-3.514614	HASILNYA	-0.2994336
-3.514614	HASJRUL	-0.3008308
-3.514614	HASYIM	-0.3008972
-3.514614	HATI	-0.3008972
-3.514614	HAWK	-0.2964243
-3.514614	HAYAM	-0.3008972
-3.514614	HAZ	-0.3004985
-3.514614	HDC	-0.3007643
-3.514614	HEMATOLOGI	-0.2952821
-3.514614	HENDAK	-0.3008972
-3.514614	HENNY	-0.3008972
-3.514614	HENRY	-0.3008972
-3.514614	HERAMUDIN	-0.3008972
-3.514614	HERUT	-0.3008972
-3.338523	HIDUP	-0.2993002
-3.514614	HIDUPNYA	-0.3000329
-3.514614	HIJAU	-0.2775673
-3.514614	HIMBAUAN	-0.3000329
-3.514614	HIMPUNAN	-0.3008972
-3.338523	HINGGA	-0.3002325
-3.514614	HITAM	-0.2952821
-3.514614	HITZFELD	-0.3006979
-3.514614	HIZBULLAH	-0.3008972
-3.514614	HOIRUL	-0.3008972
-3.514614	HOLLYWOOD	-0.3008972
-3.338523	HONG	-0.3007643
-3.514614	HONGKONG	-0.2775673
-3.338523	HOTEL	-0.2774271
-3.514614	HUDBHOY	-0.2986331
-2.970546	HUKUM	-0.2997667
-3.514614	HUTAN	-0.3008972
-3.514614	HYDE	-0.3008972
-3.514614	HYDRAULIC	-0.3008972
-3.514614	HYSTRIXS	-0.2952821
-3.213584	I	-0.3004985
-3.116674	IA	-0.2993669
-3.338523	IBADAH	-0.300432
-3.514614	ICW	-0.2952821
-3.514614	IDE	-0.3008972
-3.514614	IDRIS	-0.3008972
-3.514614	IGNATIUS	-0.3008972
-3.514614	IHSAN	-0.2997666
-3.514614	IHZA	-0.3008972
-3.514614	III	-0.2938669
-3.514614	IKANG	-0.3008972
-3.514614	ILEGAL	-0.2775673
-3.037493	IMAM	-0.2956184
-3.514614	INDAH	-0.2775673
-3.514614	INDIA	-0.3008972
-2.701701	INDONESIA	-0.3344468
-3.514614	INDRA	-0.3008972
-3.514614	INDUSTRI	-0.2775673
-3.514614	INGGRIS	-0.3008972
-3.338523	INGIN	-0.3005649
-3.514614	INGKAR	-0.3008972
-2.453916	INI	-0.3067538
-3.338523	INSIDEN	-0.2997666
-3.514614	INSTALASI	-0.2964243
-3.213584	INTERNASIONAL	-0.2698605
-3.514614	INTERUPSI	-0.2964243
-3.514614	INVESTASI	-0.3008308
-3.514614	INVESTIGASI	-0.3008972
-3.338523	IQBAL	-0.2763743
-3.514614	IQRA	-0.3008972
-3.514614	IQTISSADIA	-0.3008972
-3.514614	IRAK	-0.2775673
-3.514614	IRAMA	-0.2952821
-3.514614	IRGUN	-0.3008972
-3.514614	ISLAM	-0.2952821
-3.338523	ISLAMABAD	-0.3006979
-3.213584	ISMAIL	-0.2754598
-3.514614	ISRAEL	-0.3008972
-3.514614	ISTIQLAL	-0.2775673
-3.514614	ISTIRAHAT	-0.2952821
-3.514614	ISTRINYA	-0.3008972
-3.514614	ITECEZET	-0.2775673
-2.22458	ITU	-0.3136761
-3.514614	IVAN	-0.3008972
-3.213584	JADI	-0.2935292
-3.514614	JADWAL	-0.2775673
-3.338523	JAFAR	-0.3005649
-2.912554	JAKARTA	-0.3501105
-3.514614	JAKASETIA	-0.3008972
-2.970546	JALAN	-0.3372127
-3.514614	JALIL	-0.2775673
-3.213584	JAM	-0.300299
-3.514614	JAMWAS	-0.3008972
-3.213584	JANGAN	-0.2999663
-3.514614	JANJI	-0.2775673
-3.514614	JANKULOVSKI	-0.2997666
-3.514614	JARINGAN	-0.2986331
-3.514614	JASA	-0.3008972
-3.514614	JASMI	-0.2775673
-3.514614	JATENG	-0.2775673
-3.514614	JATI	-0.3008972
-3.514614	JATIM	-0.3008972
-3.338523	JATUH	-0.276304
-3.116674	JAUH	-0.2974967
-3.514614	JAVNOSTI	-0.3008308
-3.514614	JAWA	-0.300432
-3.338523	JAZZ	-0.2984996
-3.514614	JEMAAH	-0.3008972
-3.514614	JEMBATAN	-0.3008972
-3.338523	JENAZAH	-0.2962901
-3.338523	JENDERAL	-0.3007643
-3.514614	JENDRAL	-0.3008972
-3.514614	JENEWA	-0.2775673
-3.213584	JENIS	-0.2961558
-3.213584	JEPANG	-0.3743372
-3.514614	JEREMY	-0.2775673
-3.514614	JERMAIN	-0.3008972
-3.514614	JERMAN	-0.2964243
-3.514614	JET	-0.3008972
-3.514614	JIAXUAN	-0.2952821
-3.338523	JIHAD	-0.2774271
-3.338523	JIKA	-0.300299
-3.514614	JIWANYA	-0.3007643
-3.514614	JK	-0.3008972
-3.514614	JOEY	-0.3008972
-3.514614	JOHN	-0.3008972
-3.514614	JOINT	-0.3008972
-3.514614	JOKO	-0.3008972
-3.514614	JUAN	-0.3008972
-3.514614	JUANITO	-0.3008972
-3.514614	JUDY	-0.3008972
-2.669516	JUGA	-0.2953493
-3.514614	JUGSOR	-0.3008972
-3.213584	JUMAT	-0.2985663
-3.514614	JUMLAH	-0.3000994
-3.514614	JUMPA	-0.3008308
-3.514614	JUMRAH	-0.2775673
-3.514614	JUNICHIRO	-0.3008972
-3.514614	JUORO	-0.3008308
-3.514614	JURNAL	-0.3008972
-3.514614	JURUSAN	-0.3008972
-3.338523	JUSTRU	-0.3007643
-3.213584	JUTA	-0.3004985
-3.514614	JUTAAN	-0.3007643
-3.338523	KABAR	-0.2770765
-3.514614	KABINET	-0.2994336
-3.514614	KAFELNIKOV	-0.2775673
-3.338523	KAKI	-0.2953493
-3.514614	KALANGAN	-0.3008308
-3.037493	KALAU	-0.2969609
-3.338523	KALI	-0.2770765
-3.514614	KALIAN	-0.3008972
-3.514614	KAMBOJA	-0.3008972
-3.116674	KAMI	-0.2997
-3.514614	KAMIL	-0.3007643
-3.514614	KAMPUNG	-0.3008972
-3.514614	KAMPUS	-0.2775673
-3.514614	KAMTIBMAS	-0.300432
-3.213584	KAMU	-0.2757414
-3.514614	KAMUS	-0.3008972
-3.514614	KAN	-0.2775673
-3.514614	KANADA	-0.2964243
-3.514614	KANAN	-0.3006979
-3.338523	KANTOR	-0.2774271
-3.116674	KAPAL	-0.2935293
-3.514614	KAPOLRES	-0.3004985
-3.514614	KAPOLWIL	-0.2775673
-3.514614	KAPUSPENKUM	-0.3008972
-3.338523	KARANG	-0.3007643
-3.514614	KARANGAN	-0.3008972
-2.815644	KARENA	-0.3244945
-3.514614	KARL	-0.3008972
-3.514614	KARO	-0.3004985
-3.338523	KARTU	-0.3006979
-3.338523	KARYA	-0.3006979
-3.338523	KARYAWAN	-0.2997666
-3.514614	KASAROH	-0.2775673
-3.037493	KASUS	-0.2948782
-2.861402	KATA	-0.2997
-3.338523	KATANYA	-0.4536586
-3.514614	KATHMANDU	-0.300565
-3.514614	KAUFMAN	-0.2964243
-3.213584	KAWASAN	-0.2991669
-3.514614	KAYHATU	-0.3008308
-3.514614	KAYU	-0.2984328
-3.514614	KBRI	-0.3008308
-2.473222	KE	-0.3310522
-3.514614	KEADAAN	-0.3008972
-3.514614	KEADILAN	-0.2775673
-3.514614	KEAJAIBAN	-0.2986331
-3.213584	KEAMANAN	-0.2933266
-3.514614	KEBETULAN	-0.2998332
-3.514614	KEBIJAKAN	-0.2952821
-3.514614	KEBOHONGAN	-0.2964243
-3.338523	KECAMATAN	-0.3007643
-3.514614	KECIL	-0.3007643
-3.514614	KEDAMAIAN	-0.3008972
-3.514614	KEDAPATAN	-0.3006979
-3.514614	KEDATANGAN	-0.3000329
-3.116674	KEDUA	-0.2759525
-3.514614	KEEMPAT	-0.3008308
-3.514614	KEENGGANAN	-0.3007643
-3.514614	KEHADIRAN	-0.3008308
-3.514614	KEHANCURAN	-0.2775673
-3.514614	KEHORMATAN	-0.2775673
-3.514614	KEHUTANAN	-0.2952821
-3.514614	KEINGINAN	-0.3008972
-3.514614	KEJAHATAN	-0.2984328
-3.514614	KEJAKGUNG	-0.3008972
-3.514614	KEKACAUAN	-0.2938669
-3.514614	KEKALAHAN	-0.3008972
-3.514614	KEKUATAN	-0.2775673
-3.338523	KELAS	-0.2995002
-3.514614	KELOMPOK	-0.3008972
-3.514614	KELUAR	-0.2986331
-3.514614	KELUARGA	-0.3000329
-3.514614	KELURAHAN	-0.3008972
-3.514614	KEMAJUAN	-0.3008972
-3.514614	KEMAJUANNYA	-0.3008972
-3.338523	KEMARIN	-0.300432
-3.213584	KEMBALI	-0.2931238
-3.338523	KEMBANG	-0.3005649
-3.514614	KEMENANGAN	-0.2998332
-3.338523	KEMUDIAN	-0.2997666
-3.213584	KEMUNGKINAN	-0.2993669
-3.514614	KENANGAN	-0.2986331
-3.338523	KENAPA	-0.3005649
-3.338523	KENDALA	-0.2986999
-3.514614	KENDARAAN	-0.3008972
-2.639553	KEPADA	-0.3538833
-3.037493	KEPALA	-0.2997666
-3.514614	KEPERLUAN	-0.3008972
-3.514614	KEPING	-0.2775673
-3.514614	KEPOLISIAN	-0.2952821
-3.213584	KEPUTUSAN	-0.2997
-3.514614	KEPUTUSANNYA	-0.3008308
-3.514614	KERAGUAN	-0.3008308
-3.514614	KERAJAAN	-0.3008308
-3.213584	KERETA	-0.3952092
-3.514614	KERINDUAN	-0.3008972
-3.514614	KERJASAMA	-0.3008972
-3.514614	KESALAHAN	-0.3008972
-3.514614	KESALAHPAHAMAN	-0.3007643
-3.514614	KESATRIA	-0.300432
-3.514614	KESATUAN	-0.3008972
-3.514614	KESEHATAN	-0.3004985
-3.514614	KESEIMBANGAN	-0.3008308
-3.514614	KESEJAHTERAAN	-0.2952821
-3.338523	KESEPAKATAN	-0.2986999
-3.514614	KESIMPULAN	-0.3007643
-3.514614	KESUKAAN	-0.3008972
-3.514614	KETETAPAN	-0.3008308
-3.514614	KETIDAKCERMATAN	-0.300432
-3.213584	KETIGA	-0.397342
-3.514614	KETIK	-0.300432
-3.116674	KETIKA	-0.3000329
-3.213584	KETUA	-0.3003655
-3.213584	KEUANGAN	-0.300166
-3.514614	KEWENANGAN	-0.2775673
-3.514614	KEYAKINANNYA	-0.3003655
-3.514614	KEYBOARD	-0.2775673
-3.514614	KEYTIMU	-0.2775673
-3.514614	KFC	-0.2775673
-3.338523	KH	-0.3006979
-3.338523	KHAIRUL	-0.2774271
-3.514614	KHAQZAR	-0.2993003
-3.514614	KHAWATIR	-0.3008972
-3.514614	KHOIRUL	-0.3008972
-3.514614	KHOTBAH	-0.3007643
-3.116674	KHUSUS	-0.2739784
-3.514614	KINERJA	-0.3007643
-3.116674	KINI	-0.2996334
-3.116674	KITA	-0.2755302
-3.514614	KITTY	-0.3008972
-3.514614	KKB	-0.3008972
-3.514614	KLASEMEN	-0.3008972
-3.514614	KLATEN	-0.2775673
-3.514614	KLIENNYA	-0.3008972
-3.514614	KLINIK	-0.2952821
-3.514614	KLIPVIDEO	-0.2964243
-3.514614	KOIZUMI	-0.2952821
-3.338523	KOLABORASI	-0.2976974
-3.514614	KOLUSI	-0.2952821
-3.514614	KOMANDO	-0.3008972
-2.970546	KOMISI	-0.3169933
-3.514614	KOMITE	-0.2938669
-3.514614	KOMITMEN	-0.2998998
-3.514614	KOMJEN	-0.3008972
-3.338523	KOMODITAS	-0.3004985
-3.514614	KOMPAS	-0.300565
-3.514614	KOMPONIS	-0.300166
-3.514614	KOMPYANG	-0.3008972
-3.338523	KONDISI	-0.3007643
-3.514614	KONFERENSI	-0.3008308
-3.338523	KONFLIK	-0.2770063
-3.514614	KONFRONTATIF	-0.3008972
-3.514614	KONGRES	-0.2775673
-3.213584	KONSTITUSI	-0.2721373
-3.514614	KONSULER	-0.3008972
-3.514614	KONVOI	-0.300565
-3.514614	KOOPERATIF	-0.3008972
-3.514614	KOORDINASI	-0.2989001
-3.514614	KOPASSUS	-0.2775673
-3.514614	KOPERASI	-0.3008972
-3.514614	KOPI	-0.2775673
-3.338523	KORAN	-0.2996334
-3.338523	KORBAN	-0.300432
-3.514614	KORPS	-0.3008972
-3.514614	KORUPSI	-0.3008972
-3.338523	KOSONG	-0.2984996
-3.116674	KOTA	-0.2989668
-3.514614	KOTAWARINGIN	-0.3008308
-3.514614	KREMASI	-0.3008972
-3.514614	KRITIK	-0.3004985
-3.514614	KROASIA	-0.2775673
-3.514614	KUASA	-0.300565
-3.213584	KUAT	-0.2962901
-3.514614	KUATRIANUS	-0.3008972
-3.514614	KUBU	-0.3008972
-3.514614	KUDA	-0.3008308
-3.514614	KUMAN	-0.3008972
-3.514614	KUMAU	-0.3008308
-3.514614	KUNING	-0.3003655
-3.514614	KUNJUNGI	-0.3008972
-3.514614	KUPWARA	-0.2775673
-3.116674	KURANG	-0.297965
-3.514614	KUSDARTO	-0.3008972
-3.514614	KYAI	-0.3008308
-3.514614	KYRGYZSTAN	-0.3008972
-3.514614	L	-0.2997666
-3.514614	LABFOR	-0.2775673
-3.338523	LABORATORIUM	-0.2774271
-3.514614	LADEN	-0.3006979
-3.116674	LAGI	-0.2995002
-3.037493	LAGU	-0.3000995
-3.514614	LAH	-0.3003655
-3.514614	LAHAN	-0.3008308
-2.774251	LAIN	-0.2924847
-3.037493	LAINNYA	-0.2674282
-3.514614	LAJNAH	-0.3008972
-3.514614	LAKSMA	-0.3008972
-2.970546	LALU	-0.3098241
-3.338523	LAMA	-0.3007643
-3.514614	LAMGEUEU	-0.3008308
-3.514614	LANCAR	-0.2775673
-3.514614	LANGIT	-0.2775673
-3.514614	LANGKAH	-0.300432
-3.116674	LANGSUNG	-0.300299
-3.338523	LANJUT	-0.275037
-3.514614	LANSKAP	-0.3006979
-3.338523	LANTAI	-0.3006314
-3.514614	LAPANGAN	-0.2775673
-3.514614	LAPORAN	-0.3008972
-3.514614	LAPORKAN	-0.3000329
-3.514614	LARAS	-0.3008972
-3.514614	LARI	-0.2995668
-3.514614	LASKAR	-0.3008308
-3.514614	LE	-0.3008972
-3.037493	LEBIH	-0.2978981
-3.514614	LEDAKAN	-0.2938669
-3.514614	LEGENDARIS	-0.3008972
-3.514614	LEGISLATIF	-0.2775673
-3.338523	LEMBAGA	-0.3007643
-3.514614	LEO	-0.3008972
-3.338523	LETDA	-0.3007643
-3.514614	LETJEN	-0.3008972
-3.514614	LEUMI	-0.2952821
-3.338523	LEWAT	-0.3007643
-3.514614	LHOKNGA	-0.3008972
-3.514614	LIGA	-0.3008972
-3.514614	LIHAT	-0.300432
-2.611524	LIMA	-0.3253761
-3.514614	LINI	-0.3006314
-3.514614	LINKVPING	-0.2775673
-3.514614	LINTAS	-0.2938669
-3.514614	LIPPO	-0.3008972
-3.514614	LIPUTAN	-0.3007643
-3.514614	LIRIKNYA	-0.3007643
-3.514614	LIVE	-0.3008308
-3.514614	LIZT	-0.3008972
-3.514614	LOEBBY	-0.3008972
-3.514614	LOGTRANS	-0.3008972
-3.514614	LOGWELL	-0.3008972
-3.514614	LOHAME	-0.3008972
-3.514614	LOKAL	-0.3008308
-3.514614	LOKASI	-0.3008308
-3.514614	LOKOMOTIF	-0.3008972
-3.514614	LOKON	-0.2775673
-3.514614	LOQMAN	-0.3008972
-3.514614	LORD	-0.3008972
-3.338523	LUAR	-0.3006979
-3.514614	LUBIS	-0.2775673
-3.514614	LUDWIJK	-0.3000329
-3.338523	LUKA	-0.3005649
-3.514614	LUPA	-0.3008972
-3.514614	LUTFHI	-0.2775673
-3.514614	LUTHERAN	-0.2986331
-3.514614	LUXOR	-0.3008972
-3.514614	MAAF	-0.300432
-3.514614	MADE	-0.3008972
-3.514614	MAHASISWA	-0.3008308
-3.514614	MAHATMA	-0.3008972
-3.514614	MAHENDRA	-0.3003655
-3.514614	MAHFUD	-0.3008972
-3.514614	MAHJUDDIN	-0.3006979
-3.514614	MAIN	-0.3008308
-3.514614	MAJALAH	-0.3008972
-3.514614	MAJU	-0.3006979
-3.514614	MAJYEN	-0.2775673
-3.514614	MAKA	-0.3008972
-3.213584	MAKAN	-0.3000994
-3.514614	MAKASIH	-0.3006314
-3.514614	MAKASSAR	-0.2984328
-3.514614	MAKMUR	-0.2952821
-3.514614	MALAH	-0.2994336
-2.970546	MALAM	-0.2741904
-3.514614	MALANG	-0.3008972
-3.338523	MALAYSIA	-0.277357
-3.514614	MALINO	-0.2997666
-3.514614	MALUKU	-0.3008308
-3.514614	MAMPU	-0.3008972
-3.514614	MANAJEMEN	-0.3006314
-3.514614	MANAJER	-0.3008308
-3.514614	MANAKALA	-0.3008308
-3.514614	MANCHESTER	-0.3006979
-3.514614	MANGGALA	-0.3008972
-3.514614	MANIFESTO	-0.3006314
-3.514614	MANIT	-0.3008972
-3.514614	MANTAN	-0.3008972
-3.514614	MANUPUTTY	-0.3007643
-3.338523	MANUSIA	-0.3006314
-3.514614	MAQDIR	-0.3007643
-3.514614	MARCHUK	-0.2989001
-3.514614	MAREK	-0.3008972
-3.514614	MARI	-0.2775673
-3.213584	MARIO	-0.2950129
-3.514614	MARKET	-0.3008308
-3.514614	MARUF	-0.2952821
-3.514614	MARX	-0.3008308
-3.514614	MARZUKI	-0.3008972
-3.338523	MASALAH	-0.3006314
-3.514614	MASHIL	-0.3008308
-3.116674	MASIH	-0.2995668
-3.213584	MASJID	-0.300299
-3.514614	MASSA	-0.2775673
-3.514614	MASUKAN	-0.2952821
-3.514614	MASUKNYA	-0.3008308
-2.912554	MASYARAKAT	-0.2749665
-3.514614	MASYARAKATNYA	-0.2775673
-3.514614	MATORI	-0.3008972
-3.213584	MAU	-0.3004985
-3.514614	MAUBERE	-0.2998998
-3.514614	MAWAS	-0.3006314
-3.514614	MAXWELL	-0.2999663
-3.514614	MAYA	-0.3006314
-3.338523	MAYJEN	-0.2767957
-3.514614	MD	-0.3008972
-3.514614	MEDAN	-0.2993003
-3.514614	MEDIA	-0.2999663
-3.514614	MEDIATOR	-0.3008972
-3.514614	MEDIS	-0.2775673
-3.338523	MEGA	-0.2774271
-3.338523	MEGAWATI	-0.3005649
-3.338523	MELAHIRKAN	-0.3006979
-2.912554	MELAKUKAN	-0.2998998
-3.213584	MELALUI	-0.300299
-3.514614	MELANGKAH	-0.3006314
-3.514614	MELANJUTKAN	-0.3008308
-3.514614	MELANTUNKAN	-0.3008972
-3.514614	MELARIKAN	-0.3008972
-3.514614	MELATI	-0.2775673
-3.514614	MELAYANI	-0.3004985
-3.514614	MELEMPAR	-0.3008972
-3.514614	MELETAKAN	-0.3008972
-3.338523	MELIHAT	-0.3006979
-3.514614	MEMACETKAN	-0.300565
-3.514614	MEMAHAMI	-0.3008308
-3.514614	MEMAINKAN	-0.3008972
-3.514614	MEMAKLUMI	-0.2994336
-3.338523	MEMANG	-0.2987666
-3.514614	MEMANGGIL	-0.3008972
-3.514614	MEMBACA	-0.300565
-3.514614	MEMBAHU	-0.2989001
-3.338523	MEMBANTAH	-0.3000994
-3.116674	MEMBAWA	-0.2992336
-3.514614	MEMBEBASKAN	-0.3008972
-3.514614	MEMBELI	-0.3008972
-3.514614	MEMBELOT	-0.2775673
-3.514614	MEMBENARKAN	-0.300432
-3.514614	MEMBENCI	-0.300565
-3.338523	MEMBENTUK	-0.3007643
-3.514614	MEMBENTUR	-0.3006314
-3.338523	MEMBERI	-0.3004985
-3.338523	MEMBERIKAN	-0.3004985
-3.514614	MEMBERITAKAN	-0.3008972
-3.514614	MEMBIARKAN	-0.3008972
-2.970546	MEMBUAT	-0.2999664
-3.514614	MEMBUKA	-0.3008972
-3.514614	MEMENTINGKAN	-0.3008972
-3.514614	MEMERIKSA	-0.3008972
-3.514614	MEMERINTAHKAN	-0.3008972
-3.514614	MEMERLUKAN	-0.3008972
-3.514614	MEMFASILITASI	-0.3008972
-3.514614	MEMILIH	-0.3008972
-3.514614	MEMILIKI	-0.3008308
-3.514614	MEMIMPIN	-0.300299
-3.514614	MEMINTA	-0.3000329
-3.514614	MEMISAHKAN	-0.3008972
-3.514614	MEMPELAJARI	-0.3008972
-3.514614	MEMPEROMOSIKAN	-0.3006979
-3.514614	MEMPRAPERADILANKAN	-0.2998998
-3.514614	MEMPRESENTASIKAN	-0.3008308
-3.514614	MEMPRIORITASKAN	-0.3008972
-3.514614	MEMPUNYAI	-0.3008972
-3.514614	MEMUAT	-0.2999663
-3.514614	MEMULAI	-0.300565
-3.514614	MEMUTUSKAN	-0.3008972
-3.514614	MEMVONIS	-0.3008972
-3.514614	MENAMBAH	-0.3008972
-3.514614	MENAMPILKAN	-0.3006314
-3.514614	MENANDATANGANI	-0.3008972
-3.514614	MENANG	-0.2997666
-3.514614	MENANGKAP	-0.3008972
-3.514614	MENANGKIS	-0.3006979
-3.514614	MENANYAKAN	-0.3007643
-3.514614	MENARGETKAN	-0.2998332
-3.213584	MENCAPAI	-0.3004985
-3.514614	MENCARI	-0.3008972
-3.514614	MENCARTER	-0.3008308
-3.514614	MENCATAT	-0.3008308
-3.514614	MENCEMASKAN	-0.2997666
-3.514614	MENCIDUK	-0.3008972
-3.514614	MENCIPTAKAN	-0.3008972
-3.514614	MENDAFTARKAN	-0.3008308
-3.514614	MENDALAM	-0.300565
-3.514614	MENDAMPINGI	-0.3007643
-3.514614	MENDAPAT	-0.3008972
-3.514614	MENDATANG	-0.3008972
-3.514614	MENDATAR	-0.3006979
-3.514614	MENDEGRADASIKAN	-0.3008308
-3.514614	MENDENGAR	-0.3008972
-3.514614	MENDIAMI	-0.3006979
-3.514614	MENDIDIK	-0.3008308
-3.514614	MENDIETA	-0.2994336
-3.514614	MENEGASKAN	-0.2998998
-3.514614	MENELEPON	-0.2938669
-3.514614	MENELPON	-0.3000994
-3.514614	MENEMBAK	-0.2984328
-3.514614	MENEMBAKKAN	-0.300299
-3.514614	MENEMBUS	-0.3006314
-3.514614	MENEMPATKAN	-0.3008972
-3.514614	MENEMUI	-0.3008972
-3.514614	MENEMUKAN	-0.3008972
-3.213584	MENENGAH	-0.300299
-3.514614	MENENTANG	-0.3008972
-3.037493	MENERIMA	-0.3002325
-3.514614	MENGACU	-0.3000329
-3.514614	MENGADAKAN	-0.3008972
-3.514614	MENGADILI	-0.300565
-3.514614	MENGAIT	-0.3008972
-3.213584	MENGAKU	-0.3952092
-3.514614	MENGALAHKAN	-0.3008972
-3.514614	MENGALAMI	-0.2952821
-3.514614	MENGAMBIL	-0.3008972
-3.514614	MENGAPA	-0.300565
-2.536891	MENGATAKAN	-0.3356644
-3.514614	MENGECEWAKAN	-0.2984328
-3.514614	MENGELUARKAN	-0.3008308
-3.338523	MENGEMUKAKAN	-0.3006979
-3.514614	MENGENAI	-0.3008972
-3.514614	MENGENAL	-0.3007643
-3.514614	MENGERJAKAN	-0.3008308
-3.514614	MENGERTI	-0.2998998
-3.514614	MENGETAHUI	-0.3008308
-3.514614	MENGGALANG	-0.3008972
-3.514614	MENGGELAR	-0.3008972
-3.213584	MENGGUNAKAN	-0.3005649
-3.514614	MENGHADAPI	-0.3007643
-3.514614	MENGHADIRI	-0.3007643
-3.514614	MENGHAYATI	-0.2998998
-3.514614	MENGHIRUPNYA	-0.2994336
-3.514614	MENGHUKUM	-0.3008972
-3.514614	MENGIKUTI	-0.3007643
-3.213584	MENGINGATKAN	-0.2991669
-3.514614	MENGINGINKAN	-0.3008308
-3.514614	MENGINTENSIFKAN	-0.3008972
-3.514614	MENGONSUMSI	-0.3008308
-3.514614	MENGOREKSI	-0.3006314
-3.514614	MENGULURKAN	-0.3008972
-3.514614	MENGUMUMKAN	-0.3003655
-3.514614	MENGUNDURKAN	-0.3006314
-3.514614	MENGUNGGULI	-0.3007643
-3.514614	MENILAI	-0.3008972
-3.514614	MENINGGALKAN	-0.3007643
-3.213584	MENIT	-0.3005649
-2.774251	MENJADI	-0.2986999
-3.514614	MENJAGA	-0.3008972
-3.514614	MENJELANG	-0.3008972
-3.338523	MENJELASKAN	-0.2998998
-3.514614	MENKEHHAM	-0.3008308
-3.514614	MENKEU	-0.3008308
-3.338523	MENKO	-0.4768556
-3.514614	MENKOP	-0.2952821
-3.514614	MENLU	-0.3008972
-3.213584	MENOLAK	-0.300166
-3.514614	MENTAH	-0.2775673
-2.970546	MENTERI	-0.3412925
-3.514614	MENUDING	-0.3008972
-3.338523	MENUJU	-0.3006979
-3.514614	MENUNTASKAN	-0.3006314
-3.514614	MENURUN	-0.3008972
-2.912554	MENURUT	-0.2998998
-3.514614	MENYAJIKAN	-0.3006979
-3.514614	MENYAKSIKAN	-0.3008972
-3.514614	MENYAMPAIKAN	-0.3008308
-3.514614	MENYANGKUT	-0.2938669
-3.514614	MENYANYIKAN	-0.3006314
-2.912554	MENYATAKAN	-0.2954166
-3.338523	MENYAYANGKAN	-0.3006314
-3.213584	MENYEBUTKAN	-0.3002325
-3.514614	MENYELAMATKAN	-0.3008972
-3.514614	MENYELIMUTI	-0.3008308
-3.514614	MENYEMPATKAN	-0.2989001
-3.514614	MENYERAH	-0.2938669
-3.338523	MENYERAHKAN	-0.3006314
-3.514614	MENYERANG	-0.3008972
-3.514614	MENYIMPAN	-0.3008972
-3.514614	MENYINGGUNG	-0.3008308
-3.514614	MENYOSIALISASIKAN	-0.3000329
-3.514614	MENYUKAI	-0.3008972
-3.514614	MENYUSUL	-0.3007643
-3.514614	MENYUSUN	-0.3008972
-3.514614	MERAH	-0.3008972
-3.514614	MERAIH	-0.3008972
-3.514614	MERDEKA	-0.2998998
-2.639553	MEREKA	-0.3276829
-3.514614	MERIDIEN	-0.3008972
-3.514614	MERINDUKAN	-0.3006314
-3.514614	MERTOYUDAN	-0.3008308
-3.037493	MERUPAKAN	-0.3505194
-3.514614	MERUYA	-0.3004985
-3.514614	MESIN	-0.3008972
-3.514614	MESIR	-0.2998332
-3.514614	METER	-0.2986331
-3.514614	METODE	-0.3008972
-3.514614	METRO	-0.3008308
-3.514614	MEYAKINKAN	-0.3004985
-3.514614	MIGZEN	-0.2775673
-3.514614	MILIK	-0.3008308
-3.514614	MILISI	-0.2775673
-3.514614	MILITAN	-0.3008972
-3.514614	MILOSEVIC	-0.2994336
-3.514614	MIMPI	-0.2964243
-3.213584	MINGGU	-0.3000994
-3.338523	MINYAK	-0.300432
-3.514614	MIRIP	-0.3008972
-3.514614	MITIGASI	-0.3008972
-3.116674	MOBIL	-0.2977643
-3.338523	MOHAMMAD	-0.3006979
-3.514614	MOLITISASI	-0.300565
-3.514614	MONSANTO	-0.2998998
-3.514614	MOSTOVOI	-0.2964243
-3.213584	MPR	-0.2734835
-3.338523	MTV	-0.2727046
-3.514614	MU	-0.2986331
-3.514614	MUAK	-0.2775673
-3.514614	MUBAZIR	-0.3008972
-3.514614	MUENCHEN	-0.2775673
-3.514614	MUFZAR	-0.2775673
-3.514614	MUHADJIR	-0.3008972
-3.116674	MUHAMMAD	-0.3004985
-3.514614	MUHAMMADIYAH	-0.3008972
-3.514614	MUJAHIR	-0.3008972
-3.514614	MUJFABA	-0.3007643
-3.514614	MUKTAMAR	-0.3008972
-3.514614	MULJOHARDJO	-0.2997666
-3.514614	MULLAH	-0.3008308
-3.514614	MULYO	-0.3008972
-3.213584	MUNCUL	-0.2911585
-3.338523	MUNGKIN	-0.2993669
-3.338523	MURID	-0.3004985
-3.514614	MUSEUM	-0.3008972
-3.514614	MUSHARRAF	-0.2989001
-3.514614	MUSIBAH	-0.3008308
-3.338523	MUSIC	-0.3007643
-3.213584	MUSIK	-0.2998332
-3.514614	MUSNI	-0.3008972
-3.514614	MUSTAHIL	-0.2994336
-3.514614	MUTIARA	-0.300432
-3.514614	MUZADI	-0.3008972
-3.514614	MUZDALIFAH	-0.3006979
-3.514614	NABI	-0.3006979
-3.514614	NACL	-0.2952821
-3.514614	NAINGGOLAN	-0.2775673
-3.037493	NAMA	-0.2990336
-3.213584	NAMUN	-0.300299
-3.338523	NANCY	-0.3007643
-3.514614	NANGGROE	-0.3004985
-3.514614	NANQUAN	-0.3008972
-3.338523	NANTI	-0.3003655
-3.338523	NASIONAL	-0.277357
-3.514614	NASKAH	-0.3008972
-3.514614	NASSER	-0.3008972
-3.514614	NASUTION	-0.3008972
-3.514614	NATO	-0.3008972
-3.514614	NAZRI	-0.3008972
-3.514614	NEBOJSA	-0.3008972
-3.514614	NEDVED	-0.2952821
-2.970546	NEGARA	-0.273625
-3.514614	NEGATIF	-0.3008308
-3.338523	NEGERI	-0.300299
-3.514614	NEGOSIASI	-0.300432
-3.514614	NEKAT	-0.2775673
-3.514614	NEPOTISME	-0.3007643
-3.514614	NEWCASTLE	-0.3008972
-3.514614	NEWMONT	-0.3008972
-3.514614	NGAITKAN	-0.2993003
-3.514614	NGURAH	-0.3008972
-3.514614	NI	-0.3008972
-3.514614	NIAS	-0.3008972
-3.514614	NIETZCHE	-0.3008308
-3.514614	NIGERIA	-0.3008972
-3.514614	NINOY	-0.3008972
-3.338523	NISTELROOY	-0.2971618
-3.514614	NOL	-0.2775673
-3.338523	NOMOR	-0.3005649
-3.514614	NONTON	-0.2993003
-3.514614	NONTONNYA	-0.3007643
-3.514614	NORBERTO	-0.3008972
-3.514614	NOSTALGIA	-0.300565
-3.514614	NOVEMBER	-0.2775673
-3.514614	NOYVACH	-0.2775673
-3.514614	NTT	-0.3008972
-3.514614	NU	-0.2775673
-3.514614	NUANSA	-0.2994336
-3.514614	NUR	-0.3007643
-3.514614	NURANI	-0.2775673
-3.514614	NUSANTARA	-0.3008308
-3.514614	NUWA	-0.3008972
-3.514614	OBJEK	-0.3008972
-3.514614	OBLIGOR	-0.3006314
-3.514614	OBYEK	-0.3008972
-3.338523	OKNUM	-0.3007643
-3.514614	OKTAVIANO	-0.3008972
-3.514614	OLE	-0.3008972
-2.514614	OLEH	-0.2956856
-3.514614	OMZETNYA	-0.3008972
-3.514614	ONH	-0.3008972
-3.514614	ONLINE	-0.3008972
-3.514614	OPRESI	-0.2775673
-2.669516	ORANG	-0.2863748
-3.514614	ORGANISASI	-0.3008972
-3.514614	ORUZGAN	-0.2775673
-3.514614	OSAMA	-0.3008308
-3.514614	OTOT	-0.3008308
-3.514614	OTTMAR	-0.3008972
-3.514614	OXFORD	-0.3008308
-3.514614	P	-0.3008972
-3.514614	PABUGPEN	-0.3008972
-3.514614	PACIFIC	-0.3008972
-2.560372	PADA	-0.3089823
-3.116674	PADAHAL	-0.2991002
-3.514614	PADANG	-0.3008972
-3.514614	PADANGBAI	-0.3008972
-3.514614	PAGI	-0.3006314
-3.514614	PAHLAWAN	-0.3008972
-3.514614	PAJAJARAN	-0.2938669
-3.514614	PAJAK	-0.3007643
-3.514614	PAK	-0.3008308
-3.514614	PAKET	-0.3006979
-3.338523	PAKISTAN	-0.276304
-3.514614	PAKPAK	-0.2952821
-3.514614	PAKSA	-0.3008308
-3.514614	PALANGKARAYA	-0.3008972
-3.338523	PALESTINA	-0.2767957
-3.514614	PAMERAN	-0.3006979
-3.514614	PANAS	-0.3006979
-3.514614	PANDAI	-0.3008308
-3.514614	PANDU	-0.2952821
-3.514614	PANGERAN	-0.3008972
-3.338523	PANGGUNG	-0.2757414
-3.514614	PANGLIMA	-0.3008972
-3.514614	PANJANG	-0.3007643
-3.514614	PAOLO	-0.2938669
-3.338523	PARA	-0.3006314
-3.514614	PARADIGMA	-0.3008308
-3.514614	PARIPURNA	-0.3007643
-3.338523	PARIS	-0.3006314
-3.514614	PARK	-0.2938669
-3.514614	PARKIR	-0.3006314
-3.514614	PARTAI	-0.3008972
-3.338523	PASALNYA	-0.3006314
-3.514614	PASAR	-0.2993003
-3.514614	PASTI	-0.2994336
-3.338523	PASUKAN	-0.3003655
-3.514614	PATUT	-0.2989001
-3.338523	PAVEL	-0.3007643
-3.514614	PDI	-0.3008972
-3.514614	PECINAN	-0.2938669
-3.514614	PEDAGANG	-0.3008308
-3.514614	PEDONGKELAN	-0.3008308
-3.514614	PEIXING	-0.3008308
-3.338523	PEJABAT	-0.2933941
-3.338523	PEKERJAAN	-0.4767227
-3.338523	PELABUHAN	-0.476922
-3.338523	PELAKU	-0.3007643
-3.514614	PELANGGARAN	-0.3007643
-3.514614	PELANGI	-0.300432
-3.338523	PELATIH	-0.3007643
-3.514614	PELATIHANNYA	-0.2994336
-3.514614	PELAYANAN	-0.3008972
-3.338523	PELEDAK	-0.2962901
-3.514614	PELEDAKAN	-0.2938669
-3.514614	PELLEGRINO	-0.2775673
-3.514614	PELUANG	-0.3008972
-3.514614	PEMBACAAN	-0.3007643
-3.514614	PEMBACOKAN	-0.3008972
-3.514614	PEMBAKARAN	-0.3008308
-3.116674	PEMBANGUNAN	-0.291905
-3.514614	PEMBENTUKAN	-0.300565
-3.514614	PEMBERANTASAN	-0.3008972
-3.514614	PEMBUAT	-0.3006979
-3.338523	PEMEGANG	-0.3006979
-2.585195	PEMERINTAH	-0.3359504
-3.514614	PEMERINTAHAN	-0.300565
-3.514614	PEMETAAN	-0.3007643
-3.514614	PEMIHAKAN	-0.3008972
-3.514614	PEMIKIRAN	-0.3006314
-3.514614	PEMILU	-0.3008972
-3.514614	PEMIMPIN	-0.300565
-3.514614	PEMOHON	-0.2998998
-3.514614	PENADBIRAN	-0.300565
-3.338523	PENAHANAN	-0.3006314
-3.514614	PENALTI	-0.2964243
-3.338523	PENAMPUNGAN	-0.2997666
-3.514614	PENANDATANGANAN	-0.2999663
-3.338523	PENANGGUHAN	-0.3004985
-3.514614	PENANGKAPAN	-0.2952821
-3.514614	PENASIHAT	-0.300565
-3.514614	PENCAIRAN	-0.3008972
-3.514614	PENCAPAIAN	-0.3008972
-3.514614	PENCARIAN	-0.3000994
-3.514614	PENDAPAT	-0.3008972
-3.514614	PENDIRI	-0.3007643
-3.514614	PENELITI	-0.2775673
-3.514614	PENELITIAN	-0.2964243
-3.514614	PENEMBAKAN	-0.2999663
-3.514614	PENERBITAN	-0.3008972
-3.338523	PENERIMAAN	-0.3006979
-3.514614	PENETAPAN	-0.3008972
-3.514614	PENGADILAN	-0.3008308
-3.514614	PENGAKUAN	-0.3006314
-3.514614	PENGALAMAN	-0.3008972
-3.514614	PENGEMUDI	-0.3008972
-3.514614	PENGGANTI	-0.300565
-3.514614	PENGHIBUR	-0.3006314
-3.514614	PENGHINAAN	-0.2952821
-3.514614	PENGUASA	-0.300565
-3.338523	PENGUNGSI	-0.2974966
-3.514614	PENIPU	-0.3008972
-3.514614	PENIPUAN	-0.2993003
-3.514614	PENJAHAT	-0.3008972
-3.514614	PENJARA	-0.2775673
-3.514614	PENJELAJAH	-0.3008308
-3.514614	PENOBATAN	-0.3008972
-3.514614	PENUH	-0.3006314
-3.514614	PENUMPANG	-0.3007643
-3.514614	PENYAKIT	-0.3008972
-3.514614	PENYALAHGUNAAN	-0.3008972
-3.514614	PENYANYI	-0.3008972
-3.338523	PENYEBAB	-0.3005649
-3.514614	PENYEGAR	-0.3008308
-3.338523	PENYELENGGARA	-0.2774271
-3.514614	PENYERANG	-0.3008972
-3.514614	PENYIDIK	-0.3008308
-3.514614	PERAMPOKAN	-0.3008972
-3.514614	PERANAN	-0.3008972
-3.213584	PERATURAN	-0.2986331
-3.514614	PERAWATAN	-0.2938669
-3.514614	PERBANDINGAN	-0.2938669
-3.514614	PERBANKAN	-0.2775673
-3.338523	PERBATASAN	-0.3007643
-3.514614	PERDAGANGAN	-0.2952821
-3.514614	PERDANA	-0.300565
-3.213584	PEREKONOMIAN	-0.2988334
-3.213584	PEREMPUAN	-0.3004985
-3.514614	PERIH	-0.2952821
-3.514614	PERILAKU	-0.300565
-3.514614	PERINGATAN	-0.2986331
-3.514614	PERINGKAT	-0.3006979
-3.338523	PERJALANAN	-0.3006979
-3.514614	PERJANJIAN	-0.3008308
-3.514614	PERJUANGAN	-0.3006979
-3.514614	PERJUANGKAN	-0.3006979
-3.514614	PERLINDUNGAN	-0.2993003
-3.514614	PERLU	-0.3008972
-3.514614	PERMASALAHAN	-0.3008972
-3.514614	PERMOHONAN	-0.3008308
-3.338523	PERNAH	-0.4763903
-3.338523	PERNYATAAN	-0.2982323
-3.514614	PERPUSTAKAAN	-0.3008972
-3.338523	PERS	-0.2891842
-3.514614	PERSEN	-0.300432
-3.514614	PERSETUJUAN	-0.2998998
-3.213584	PERSIDANGAN	-0.2741197
-3.514614	PERSOALAN	-0.3008308
-3.213584	PERSONEL	-0.2989001
-3.213584	PERTAHANAN	-0.3005649
-3.338523	PERTAMA	-0.2995002
-3.338523	PERTAMINA	-0.2994335
-3.514614	PERTANDINGAN	-0.3008972
-3.514614	PERTANIAN	-0.2775673
-3.514614	PERTEMUAN	-0.3008308
-3.514614	PERTENGKARAN	-0.3003655
-3.338523	PERUBAHAN	-0.2982992
-3.037493	PERUSAHAAN	-0.3002325
-3.213584	PERVEZ	-0.2991669
-3.514614	PERWIRA	-0.3008972
-3.514614	PES	-0.2775673
-3.514614	PESANTREN	-0.3008972
-3.213584	PESAWAT	-0.3005649
-3.213584	PESERTA	-0.29582
-3.213584	PETANI	-0.2772869
-3.514614	PETENIS	-0.300565
-3.514614	PETIR	-0.3003655
-3.514614	PETUGAS	-0.3007643
-3.514614	PEUKAN	-0.3008972
-3.514614	PFAFF	-0.3008972
-3.514614	PHAO	-0.2952821
-3.514614	PHILIP	-0.3008972
-3.514614	PIALA	-0.3008972
-3.514614	PIDANA	-0.2775673
-3.213584	PIHAK	-0.3005649
-3.514614	PIHAKNYA	-0.3008308
-3.338523	PIMPINAN	-0.3002325
-3.514614	PINJAMAN	-0.2984328
-3.514614	PLAZA	-0.3008972
-3.514614	PLUS	-0.3008972
-3.514614	PNS	-0.3007643
-3.514614	POHON	-0.3008972
-3.514614	POL	-0.3008972
-3.514614	POLIS	-0.3008972
-3.037493	POLISI	-0.2955511
-3.037493	POLITIK	-0.3215833
-3.514614	POLRES	-0.3008972
-2.970546	POLRI	-0.3166412
-3.514614	PONDOK	-0.3008972
-3.338523	POPULER	-0.2935292
-3.514614	PORTABEL	-0.2964243
-3.514614	PORTUGAL	-0.3008972
-3.514614	POS	-0.3008972
-3.514614	POTRET	-0.3008972
-3.514614	PRAKTIK	-0.3008972
-3.514614	PRAMUKA	-0.3008972
-3.338523	PRAPERADILAN	-0.2770765
-3.514614	PRAVDA	-0.3007643
-2.861402	PRESIDEN	-0.2697891
-3.514614	PRESS	-0.3008308
-3.338523	PRODUK	-0.3007643
-3.338523	PROF	-0.4768556
-3.514614	PROFESIONAL	-0.2775673
-3.338523	PROGRAM	-0.3003655
-3.514614	PROSES	-0.300565
-3.338523	PROVINSI	-0.2980987
-3.338523	PROYEK	-0.3007643
-3.514614	PT	-0.3008972
-3.514614	PUASANYA	-0.2993003
-3.514614	PUBLIK	-0.2775673
-3.338523	PUKUL	-0.2997
-3.338523	PULA	-0.300166
-3.338523	PULANG	-0.3004985
-2.815644	PULUH	-0.3552207
-3.514614	PUN	-0.3007643
-3.338523	PUNCAK	-0.3007643
-3.514614	PUSAT	-0.3008308
-3.514614	PUTIN	-0.2997666
-3.514614	PUTRA	-0.3008308
-3.514614	QOLBU	-0.2998998
-3.514614	QUAID	-0.3008972
-3.514614	QURAN	-0.2993003
-3.514614	R	-0.2952821
-3.514614	RABU	-0.2775673
-3.514614	RADAR	-0.3007643
-3.514614	RADEK	-0.3008972
-3.514614	RADIN	-0.3008972
-3.514614	RAEHANA	-0.2952821
-3.514614	RAI	-0.2775673
-3.514614	RAJA	-0.3008308
-3.514614	RAJGHAT	-0.2989001
-3.514614	RAKA	-0.2775673
-3.514614	RAKITAN	-0.3007643
-3.514614	RAKSASA	-0.3008308
-3.338523	RAKYAT	-0.3006979
-3.514614	RAMADHAN	-0.3008972
-3.514614	RAMAI	-0.3007643
-3.514614	RAMLI	-0.2775673
-3.338523	RANGKAIAN	-0.2961558
-3.338523	RAPAT	-0.296223
-3.514614	RAPATNYA	-0.2775673
-3.338523	RASA	-0.2992336
-3.514614	RASANYA	-0.3008972
-3.514614	RATU	-0.3008308
-2.970546	RATUS	-0.2978982
-3.514614	RAWDA	-0.2938669
-3.514614	RAY	-0.3008972
-3.338523	RAYA	-0.3007643
-3.514614	RDX	-0.2775673
-3.514614	REAKSI	-0.2964243
-3.514614	REBOISASI	-0.2989001
-3.514614	REDFORD	-0.3006314
-3.514614	REFERENDUM	-0.2775673
-3.514614	REFERENSI	-0.2938669
-3.338523	REFORMASI	-0.2951475
-3.514614	REJOSO	-0.2775673
-3.514614	REKAYASA	-0.3008972
-3.338523	REKTOR	-0.3005649
-3.514614	RELATIF	-0.3006314
-3.514614	REMBRANDT	-0.2994336
-3.514614	RENALDY	-0.3008972
-3.213584	RENCANA	-0.2966927
-3.514614	RENOVASI	-0.3007643
-3.514614	REPKA	-0.2952821
-3.514614	REPUBLIK	-0.3008972
-3.514614	RESERSE	-0.300565
-3.514614	RESMI	-0.3008972
-3.514614	REVOLUSI	-0.2989001
-3.514614	RHOMA	-0.3008972
-3.514614	RI	-0.3007643
-3.116674	RIBU	-0.2968268
-3.514614	RIBUNYA	-0.2775673
-3.514614	RIEFQI	-0.300565
-3.514614	RIUH	-0.2952821
-3.514614	RIWAYAT	-0.3008308
-3.514614	RIYADH	-0.3008972
-3.514614	RIZAL	-0.3008972
-3.514614	ROBERT	-0.3008972
-3.514614	ROBERTSON	-0.2997666
-3.514614	RODA	-0.3008972
-3.514614	RODHI	-0.3008308
-3.514614	ROKY	-0.3008308
-3.514614	ROMA	-0.2775673
-3.037493	ROMBONGAN	-0.4249716
-3.514614	ROMLI	-0.2775673
-3.514614	RON	-0.3008972
-3.514614	RONGGOWARSITO	-0.2952821
-3.514614	RORING	-0.2952821
-3.514614	ROWLING	-0.3008972
-3.514614	ROYFANI	-0.2997666
-3.514614	RSCM	-0.2986331
-3.514614	RSPP	-0.2775673
-3.338523	RUANG	-0.300432
-3.338523	RUANGAN	-0.3007643
-3.514614	RUKO	-0.2938669
-3.514614	RULLY	-0.3008972
-3.037493	RUMAH	-0.2692894
-3.514614	RUMSFELD	-0.3007643
-3.514614	RUNTUWENE	-0.2952821
-3.213584	RUPIAH	-0.270858
-3.514614	RUSDOIHARDJO	-0.3008308
-2.970546	RUSIA	-0.3160771
-3.514614	RUUD	-0.3008972
-3.514614	RYACUDU	-0.3008972
-3.514614	RYAMIZARD	-0.3008972
-3.514614	SA	-0.3008972
-2.815644	SAAT	-0.319723
-3.514614	SABTU	-0.2952821
-3.514614	SADAR	-0.3008308
-3.514614	SAFNIL	-0.3008972
-3.338523	SAHAM	-0.2998998
-3.514614	SAID	-0.3008972
-3.514614	SAIFULLOH	-0.3006314
-3.116674	SAKIT	-0.270858
-3.514614	SAKSI	-0.2994336
-2.611524	SALAH	-0.5418047
-3.514614	SALINAN	-0.3007643
-3.116674	SAMA	-0.3581053
-3.514614	SAMBIL	-0.3007643
-3.338523	SAMPAI	-0.3006314
-3.514614	SAMUDRA	-0.3007643
-3.514614	SANA	-0.3006314
-3.514614	SANCHEZ	-0.3008972
-3.514614	SANDRA	-0.3008972
-3.213584	SANGAT	-0.3005649
-3.514614	SANXINGDUI	-0.2775673
-3.514614	SARAH	-0.3008972
-3.514614	SARANG	-0.3008972
-3.514614	SARAPAN	-0.3008972
-3.514614	SATGAS	-0.3008972
-3.514614	SATPAM	-0.2984328
-2.536891	SATU	-0.2659191
-3.514614	SATUNYA	-0.2993003
-3.514614	SAUDI	-0.3008972
-3.514614	SAWIT	-0.3008972
-3.514614	SAXON	-0.2775673
-2.861402	SAYA	-0.3144827
-3.514614	SCTV	-0.2775673
-3.514614	SEBAB	-0.300299
-2.970546	SEBAGAI	-0.299367
-3.514614	SEBAGAINYA	-0.2775673
-3.514614	SEBAIKNYA	-0.2998998
-3.514614	SEBANDING	-0.2998998
-3.514614	SEBELUM	-0.3008972
-3.213584	SEBELUMNYA	-0.3003655
-2.774251	SEBUAH	-0.2990335
-3.514614	SEBULAN	-0.300565
-2.970546	SECARA	-0.300166
-3.514614	SECHAN	-0.3007643
-3.037493	SEDANG	-0.2999664
-3.514614	SEDANGKAN	-0.3008972
-3.514614	SEDIKITNYA	-0.3008308
-3.338523	SEGERA	-0.3007643
-3.514614	SEHARUSNYA	-0.3007643
-3.338523	SEHINGGA	-0.2986999
-3.213584	SEJAK	-0.2998332
-3.213584	SEJUMLAH	-0.3002325
-3.338523	SEKALI	-0.2774271
-3.338523	SEKARANG	-0.2757414
-3.037493	SEKITAR	-0.3491844
-3.514614	SEKITARNYA	-0.2775673
-3.514614	SEKJEN	-0.3008972
-3.338523	SEKOLAH	-0.2772869
-3.514614	SEKRETARIS	-0.3008308
-3.514614	SEKSI	-0.3007643
-3.514614	SEL	-0.3008972
-3.338523	SELAIN	-0.3006979
-3.338523	SELALU	-0.3006979
-3.213584	SELAMA	-0.2991669
-3.514614	SELAMAT	-0.3008972
-3.514614	SELASA	-0.2938669
-3.338523	SELATAN	-0.4536586
-3.514614	SELURUH	-0.3008308
-3.514614	SEMARANG	-0.2775673
-3.213584	SEMBILAN	-0.3002325
-3.514614	SEMBUH	-0.2986331
-3.037493	SEMENTARA	-0.4231043
-3.514614	SEMINAR	-0.2938669
-3.514614	SEMINARI	-0.3008972
-3.514614	SEMOGA	-0.3008972
-2.970546	SEMPAT	-0.300033
-3.514614	SEMPURNA	-0.2775673
-3.514614	SEMUA	-0.3008308
-3.514614	SEMULA	-0.3008972
-3.514614	SENADA	-0.3000994
-3.514614	SENDIRI	-0.2775673
-3.338523	SENIN	-0.4767891
-3.338523	SENJATA	-0.3005649
-2.970546	SEORANG	-0.2998998
-3.514614	SEPAK	-0.3008308
-3.514614	SEPAKAT	-0.2989001
-3.514614	SEPASANG	-0.3008972
-3.116674	SEPERTI	-0.3631027
-3.514614	SEPTEMBER	-0.3008972
-3.213584	SEPULUH	-0.2766553
-3.116674	SERANGAN	-0.2998998
-3.514614	SERANGKAIAN	-0.3008972
-3.338523	SERATUS	-0.3007643
-3.514614	SERIATOPORA	-0.3008972
-3.514614	SERIBU	-0.2997666
-3.514614	SERIKAT	-0.2775673
-3.338523	SERING	-0.2998332
-2.970546	SERTA	-0.2989669
-3.514614	SESAAT	-0.300565
-3.338523	SESAMA	-0.2935292
-3.338523	SESUAI	-0.2991669
-3.514614	SESUDAH	-0.2995668
-3.514614	SET	-0.3008972
-3.514614	SETAHUN	-0.3008308
-3.514614	SETARAF	-0.2993003
-2.970546	SETELAH	-0.2997001
-3.514614	SETEMPAT	-0.2775673
-3.514614	SETIAP	-0.3008972
-3.338523	SETUJU	-0.2997
-3.514614	SEXY	-0.3008972
-3.514614	SHALAT	-0.3008972
-3.514614	SHEVCHENKO	-0.3008972
-3.514614	SHI	-0.3008972
-3.514614	SHOW	-0.3008308
-3.514614	SHOWBIZ	-0.3008308
-3.514614	SI	-0.3008972
-3.338523	SIA	-0.3006314
-3.116674	SIANG	-0.3441636
-3.338523	SIAP	-0.3007643
-3.514614	SIAPA	-0.3007643
-2.970546	SIDANG	-0.275319
-3.514614	SIDI	-0.2994336
-3.514614	SIDO	-0.3008972
-3.514614	SIHOTANG	-0.3008972
-3.338523	SIKAP	-0.2997
-3.514614	SIMALUNGUN	-0.3008972
-3.514614	SIMMONDS	-0.2997666
-3.514614	SIMPANG	-0.2999663
-3.514614	SINER	-0.3008972
-3.514614	SINGKAT	-0.2775673
-3.514614	SINGKATAN	-0.2986331
-3.213584	SISI	-0.29582
-3.514614	SISTEM	-0.3008972
-3.514614	SITEPU	-0.3008972
-3.514614	SITOHANG	-0.3008308
-3.514614	SITU	-0.3008308
-3.514614	SITUASI	-0.3006314
-3.514614	SIYASAH	-0.3007643
-3.514614	SJ	-0.2775673
-3.514614	SKYLITE	-0.3008972
-3.514614	SMA	-0.2775673
-3.514614	SOCIETY	-0.2775673
-3.514614	SOEHARTO	-0.3008972
-3.514614	SOFJAN	-0.3004985
-3.514614	SOFWAN	-0.2775673
-3.338523	SOFYAN	-0.3007643
-3.514614	SOLO	-0.2775673
-3.514614	SOLOWIEJCZYK	-0.300565
-3.514614	SOLSKJAER	-0.2952821
-3.514614	SOPHIE	-0.2994336
-3.514614	SOSOK	-0.3008972
-3.514614	SOUNDING	-0.3008308
-3.514614	SPANYOL	-0.2775673
-3.514614	SQUARE	-0.2775673
-3.514614	SRICEK	-0.3008972
-3.514614	STAF	-0.3007643
-3.338523	STAFNYA	-0.2774271
-3.213584	STASIUN	-0.3003655
-3.514614	STATUS	-0.3008308
-3.514614	STUDI	-0.2984328
-3.514614	SUADMODJO	-0.3008972
-3.514614	SUAMINYA	-0.300565
-3.338523	SUASANA	-0.2936643
-3.514614	SUBJECT	-0.3008972
-3.514614	SUBUH	-0.2775673
-3.514614	SUBUR	-0.2775673
-3.514614	SUBVERSIF	-0.2964243
-2.585195	SUDAH	-0.2952148
-3.514614	SUDIARTA	-0.300565
-3.514614	SUDIRMAN	-0.3008308
-3.514614	SUGIARTO	-0.2952821
-3.514614	SUHU	-0.3007643
-3.514614	SUJANA	-0.3008972
-3.514614	SUKAESIH	-0.3007643
-3.514614	SUKARNOISASI	-0.2775673
-3.514614	SULAIMAN	-0.2952821
-3.514614	SULIT	-0.2964243
-3.514614	SULSEL	-0.2775673
-3.514614	SULTAN	-0.3008972
-3.514614	SUMANTRI	-0.2997666
-3.514614	SUMATRA	-0.3007643
-3.514614	SUMAYYA	-0.3008972
-3.514614	SUMBER	-0.2938669
-3.514614	SUNDULAN	-0.3008972
-3.514614	SUNNAH	-0.2775673
-3.338523	SUPAYA	-0.2992336
-3.514614	SUPOLO	-0.3008972
-3.514614	SUPRAPTO	-0.2775673
-3.514614	SURABAYA	-0.3008972
-3.213584	SURAT	-0.2992336
-3.514614	SUTA	-0.2997666
-3.514614	SUWARTOYO	-0.2993003
-3.514614	SVEN	-0.3008972
-3.514614	SWEDIA	-0.3004985
-3.514614	SYAHBANA	-0.3008308
-3.514614	SYAHIDAH	-0.3008972
-3.514614	SYAHMARDAN	-0.3008972
-3.514614	SYAMSUDDIN	-0.2938669
-3.514614	SYARIEF	-0.2997666
-3.514614	SYLVIA	-0.3008972
-3.514614	TABRAKAN	-0.2984328
-3.514614	TADI	-0.3006979
-3.514614	TAFSIR	-0.2775673
-3.514614	TAFSIRAN	-0.3006314
-2.912554	TAHUN	-0.3305821
-3.514614	TAK	-0.3008972
-3.514614	TAKSI	-0.3008972
-3.514614	TAKZIM	-0.3008972
-3.213584	TALIBAN	-0.3696146
-3.338523	TAMAN	-0.3007643
-3.514614	TAMARA	-0.3008972
-3.514614	TAMBAH	-0.3008972
-3.213584	TAMPIL	-0.300432
-3.514614	TAMPUBOLON	-0.2775673
-3.514614	TAMU	-0.3008972
-3.514614	TAN	-0.2997666
-3.037493	TANAH	-0.3266123
-3.514614	TANAMAN	-0.3008972
-3.514614	TANDFIDZIYAH	-0.3008972
-3.514614	TANG	-0.3008972
-3.514614	TANGANNYA	-0.3000329
-3.514614	TANPA	-0.3007643
-3.338523	TAOLU	-0.3007643
-3.514614	TAQWA	-0.2938669
-3.514614	TARGET	-0.3008308
-3.514614	TARU	-0.2775673
-3.514614	TAS	-0.2993003
-3.514614	TATA	-0.3008972
-3.514614	TATHAWWU	-0.3008972
-3.514614	TAUFIK	-0.3008972
-3.338523	TAYANGAN	-0.2981655
-3.514614	TAZUL	-0.3008972
-3.514614	TE	-0.3008972
-3.514614	TEATER	-0.3008308
-3.514614	TEBAL	-0.3008972
-3.514614	TEGAS	-0.300565
-3.514614	TEGUH	-0.3008308
-3.514614	TEHNIS	-0.3008308
-3.514614	TEHVUST	-0.2775673
-3.338523	TEKANAN	-0.3006979
-3.514614	TEKNIS	-0.2938669
-3.116674	TELAH	-0.3000994
-3.338523	TELEPON	-0.3006314
-3.213584	TELEVISI	-0.2889795
-3.514614	TELEVISION	-0.3008308
-3.514614	TELKOM	-0.2993003
-3.514614	TEMAN	-0.300432
-3.338523	TEMPAT	-0.3007643
-3.514614	TEMPO	-0.2997666
-3.514614	TEMPUR	-0.3004985
-3.514614	TENAU	-0.3007643
-3.338523	TENDANGAN	-0.3007643
-3.037493	TENGAH	-0.2978312
-3.338523	TENTANG	-0.3005649
-3.514614	TENTARA	-0.3008308
-3.338523	TENTU	-0.2989001
-3.338523	TEPAT	-0.277357
-3.514614	TERANG	-0.3008972
-3.338523	TERBAIK	-0.2700031
-3.514614	TERBANG	-0.2775673
-3.514614	TERBENTUK	-0.3008972
-3.514614	TERBUKTI	-0.300565
-3.514614	TERDAKWA	-0.2994336
-3.514614	TERDAPAT	-0.3008308
-3.514614	TERDETEKSI	-0.2775673
-3.338523	TERGANTUNG	-0.2974297
-3.514614	TERGUNCANG	-0.3008972
-2.970546	TERHADAP	-0.2996335
-3.514614	TERITORI	-0.2775673
-2.912554	TERJADI	-0.3266671
-3.338523	TERJADINYA	-0.3006979
-3.514614	TERJAWAB	-0.2998998
-3.514614	TERKEMUKA	-0.2938669
-3.514614	TERKENAL	-0.3008972
-3.514614	TERLALU	-0.3006979
-3.213584	TERLAMBAT	-0.3741268
-3.514614	TERLARANG	-0.2938669
-3.338523	TERLETAK	-0.2934617
-3.213584	TERLIHAT	-0.2998998
-3.213584	TERMASUK	-0.2984328
-3.514614	TERMINAL	-0.2952821
-3.514614	TERNYATA	-0.300565
-3.514614	TEROMPET	-0.3008972
-3.338523	TERORIS	-0.2923793
-3.514614	TERORISME	-0.2938669
-3.514614	TEROWONGAN	-0.2998998
-3.514614	TERPELIHARA	-0.2775673
-3.514614	TERPISAH	-0.2938669
-3.514614	TERSAMBAR	-0.3008972
-3.514614	TERSANGKA	-0.2964243
-2.585195	TERSEBUT	-0.336736
-3.338523	TERSEDIA	-0.2931238
-3.514614	TERTANGKAP	-0.3003655
-3.514614	TERTINGGI	-0.3008972
-3.514614	TERUNGKAP	-0.2994336
-3.338523	TERUS	-0.3002325
-3.338523	TETAP	-0.3005649
-3.514614	TETAPI	-0.3008308
-3.213584	TEWAS	-0.2921761
-3.514614	TEXMACO	-0.3007643
-3.338523	THAILAND	-0.2947435
-3.514614	THREE	-0.2952821
-3.514614	TIAP	-0.3008308
-3.116674	TIBA	-0.3579694
-2.400671	TIDAK	-0.3218366
-2.536891	TIGA	-0.313388
-3.514614	TIKET	-0.2998998
-3.037493	TIM	-0.300299
-3.514614	TIME	-0.2775673
-3.514614	TIMNYA	-0.2775673
-3.338523	TIMOR	-0.300166
-2.861402	TIMUR	-0.3047887
-3.514614	TINDAK	-0.3008308
-3.338523	TINDAKAN	-0.2993002
-3.514614	TINGGI	-0.2952821
-3.514614	TINGKAT	-0.3008972
-3.514614	TINJU	-0.300166
-3.514614	TNI	-0.300565
-3.514614	TO	-0.3008972
-3.514614	TOGO	-0.3006979
-3.514614	TOILET	-0.2775673
-3.213584	TOKOH	-0.2957528
-3.514614	TOMAS	-0.3008972
-3.514614	TOMMY	-0.3007643
-3.514614	TONI	-0.3008972
-3.514614	TOPENG	-0.300565
-3.514614	TOPI	-0.2952821
-3.514614	TOR	-0.3008972
-3.514614	TOSARI	-0.3008308
-3.514614	TOYOTA	-0.3008972
-3.514614	TRAFALGAR	-0.3008972
-3.514614	TRAGEDI	-0.3008972
-3.514614	TRANSAKSI	-0.2938669
-3.514614	TRANSGENIK	-0.2775673
-3.514614	TRANSIT	-0.2938669
-3.514614	TRIWULAN	-0.3008308
-3.514614	TROPIS	-0.2998998
-3.514614	TUA	-0.3008308
-3.514614	TUANYA	-0.3008972
-3.338523	TUBUH	-0.277357
-3.514614	TUDJMAN	-0.2986331
-3.514614	TUGBOT	-0.3008308
-3.213584	TUJUH	-0.3970095
-3.514614	TUNGGAL	-0.3008972
-3.514614	TURIS	-0.3008308
-3.514614	TURUT	-0.2775673
-3.514614	TYX	-0.2993003
-3.514614	UA	-0.2993003
-3.213584	UDARA	-0.2756006
-3.514614	UGM	-0.3004985
-3.213584	UJAR	-0.3005649
-3.514614	UJIANNYA	-0.3007643
-3.213584	UMAR	-0.300299
-3.338523	UMUM	-0.3006979
-2.970546	UNDANG	-0.3689763
-3.514614	UNGGULAN	-0.3008308
-3.514614	UNHCR	-0.3006979
-3.338523	UNIT	-0.3006314
-3.514614	UNITED	-0.2952821
-3.213584	UNIVERSITAS	-0.3006314
-3.514614	UNJUK	-0.3008308
-3.338523	UNSUR	-0.2997
-2.310494	UNTUK	-0.2940694
-3.514614	UPJA	-0.2993003
-3.514614	URI	-0.2952821
-3.338523	URUSAN	-0.2935292
-3.514614	USAHA	-0.3008972
-3.514614	USAI	-0.2775673
-3.514614	USMANUDDIN	-0.2775673
-3.338523	USS	-0.3007643
-3.338523	USTADZ	-0.3006314
-3.338523	UTAMA	-0.3007643
-3.514614	UTANG	-0.3007643
-3.213584	UTARA	-0.2995002
-3.338523	UTUSAN	-0.4767891
-3.514614	UU	-0.2998998
-3.514614	VAJPAYE	-0.3008972
-3.514614	VALAS	-0.2938669
-3.514614	VALENCIA	-0.3008972
-3.338523	VALINDO	-0.2714981
-3.514614	VAN	-0.3008308
-3.514614	VAZQUEZ	-0.3008972
-3.514614	VELASCO	-0.3008972
-3.514614	VENEZUELA	-0.3006314
-3.514614	VERBAL	-0.3004985
-3.338523	VERSI	-0.3000329
-3.514614	VI	-0.3008972
-3.514614	VICARIO	-0.3008972
-3.514614	VIDAKOVIC	-0.2775673
-3.514614	VIDEO	-0.3007643
-3.514614	VILLA	-0.2775673
-3.514614	VITAL	-0.2775673
-3.514614	VJ	-0.3008308
-3.514614	VLADIMIR	-0.3008972
-3.514614	VMI	-0.3008308
-3.514614	VOKALNYA	-0.2994336
-3.514614	VRIENS	-0.2952821
-3.514614	VULKANOLOGI	-0.2952821
-3.514614	VVIP	-0.2964243
-3.514614	WABAH	-0.3008972
-3.213584	WAHID	-0.2769361
-3.514614	WAHYU	-0.3008308
-3.514614	WAJDI	-0.3008972
-3.514614	WAJIB	-0.2952821
-3.514614	WAKAPOLRI	-0.3008972
-3.037493	WAKTU	-0.2944066
-3.514614	WALJHI	-0.3008972
-3.514614	WANA	-0.3008972
-3.514614	WANDERERS	-0.2775673
-3.338523	WANITA	-0.2772168
-3.514614	WAPIMCAB	-0.3007643
-3.514614	WAPRES	-0.2775673
-2.970546	WARGA	-0.3407596
-3.116674	WARTAWAN	-0.289866
-3.514614	WARTEL	-0.2938669
-3.514614	WARUNG	-0.3008972
-3.514614	WASIT	-0.3008972
-3.514614	WASPADA	-0.300565
-3.514614	WEA	-0.2775673
-3.514614	WEBSITE	-0.3008308
-3.514614	WHITE	-0.3008972
-3.514614	WIJAYA	-0.2775673
-3.514614	WILAYAH	-0.3007643
-3.338523	WILLIAM	-0.3007643
-3.514614	WILSON	-0.300565
-3.514614	WINTER	-0.3008308
-3.514614	WONG	-0.3008972
-3.514614	WREDA	-0.3008972
-3.514614	WURUK	-0.2775673
-3.338523	WUSHU	-0.296223
-3.514614	WWW	-0.3007643
-3.514614	WYNNE	-0.2997666
-3.514614	XANANA	-0.3008972
-3.514614	YA	-0.2775673
-3.037493	YAITU	-0.300166
-1.976795	YANG	-0.307091
-3.514614	YAPPIKA	-0.2775673
-3.514614	YE	-0.3008972
-3.514614	YEVGENY	-0.3008972
-3.514614	YEVHEN	-0.3008972
-3.514614	YOGYAKARTA	-0.2775673
-3.514614	YONIF	-0.2999663
-3.514614	YUGOSLAVIA	-0.3008972
-3.514614	YUNI	-0.3008972
-3.514614	YUNIWATI	-0.3008972
-3.514614	YUSA	-0.3008308
-3.338523	YUSRIL	-0.3006979
-3.338523	YUSUF	-0.3005649
-3.514614	ZAENUDDIN	-0.2997666
-3.514614	ZAENUDIN	-0.3008972
-3.514614	ZAHOVIC	-0.3008972
-3.514614	ZAINAL	-0.3008972
-3.514614	ZAMAN	-0.3008972
-3.514614	ZARKASIH	-0.3008972
-3.514614	ZERO	-0.3008972
-3.514614	ZHENG	-0.3008972
-3.514614	ZIMBABWE	-0.2775673
-3.514614	ZIVKOVIC	-0.3008972
-3.514614	ZLATKO	-0.3008972
-3.514614	ZNET	-0.3008308
-3.514614	ZOETMULDER	-0.2938669
-3.514614	ZOHRA	-0.3008972
-3.514614	ZORAN	-0.3008972
-3.514614	ZUHUR	-0.2938669
-3.514614	ZVAI	-0.3008972
-3.514614	ZX	-0.2984328
-3.514614	ZYGNUS	-0.2775673

\2-grams:
-2.786041	<s> ABDULLAH
-2.786041	<s> ABSENNYA
-2.786041	<s> ABU
-2.30892	<s> ACARA
-2.485011	<s> ADA
-2.786041	<s> ADAPUN
-2.786041	<s> ADI
-2.786041	<s> ADNAN
-2.786041	<s> AFP
-2.786041	<s> AGENDA
-2.786041	<s> AGNIEZKA
-2.786041	<s> AGUS
-2.786041	<s> AHQAM
-2.786041	<s> AJWAR
-2.786041	<s> AKIBATNYA
-2.786041	<s> AL
-2.786041	<s> ALASANNYA
-2.786041	<s> ALEKX
-2.786041	<s> ALEX
-2.786041	<s> ALFA
-2.786041	<s> ALQURAN
-2.786041	<s> AMAZON
-2.786041	<s> ANGIE
-2.786041	<s> ANGKA
-2.786041	<s> ANWAR
-2.485011	<s> APAKAH
-2.485011	<s> APALAGI
-2.786041	<s> APARAT
-2.786041	<s> ARIF
-2.786041	<s> ARY
-2.786041	<s> ATAL
-2.786041	<s> AUDI
-2.786041	<s> AVTUR
-2.786041	<s> BAGAIMANA
-2.786041	<s> BAHAN
-2.485011	<s> BAHKAN
-2.786041	<s> BAYI
-2.786041	<s> BENDERA
-2.786041	<s> BERITA
-2.786041	<s> BISA
-2.786041	<s> BOM
-2.786041	<s> BOYCE
-2.786041	<s> BUKU
-2.786041	<s> BURSA
-2.786041	<s> BUSH
-2.786041	<s> CABANG
-2.786041	<s> CEPAT
-2.786041	<s> CONTOH
-2.786041	<s> CUACA
-2.786041	<s> CUNGKILAN
-2.485011	<s> DALAM
-2.30892	<s> DARI
-2.786041	<s> DARUL
-2.786041	<s> DEMIKIAN
-2.786041	<s> DEPARTEMEN
-2.786041	<s> DETEKTOR
-1.786041	<s> DI
-2.183981	<s> DIA
-2.786041	<s> DIMANA
-2.485011	<s> DIREKTUR
-2.786041	<s> DIRJEN
-2.786041	<s> DISBURSEMENT
-2.786041	<s> DISUSUL
-2.786041	<s> DOKTER
-2.786041	<s> DOSEN
-2.087071	<s> DUA
-2.786041	<s> EDMON
-2.786041	<s> ELZA
-2.786041	<s> EXXONMOBIL
-2.786041	<s> FELX
-2.786041	<s> FOXNEWS
-2.786041	<s> FUNGSIONARIS
-2.786041	<s> GERAKAN
-2.786041	<s> GOL
-2.786041	<s> HABIBIE
-2.786041	<s> HADIR
-2.786041	<s> HAI
-2.183981	<s> HAL	0.1171134
-2.786041	<s> HALIMAH
-2.786041	<s> HAMZAH
-2.786041	<s> HANYA
-2.786041	<s> HARGA
-2.786041	<s> HARI
-2.786041	<s> HARIAN
-2.786041	<s> HASILNYA
-2.786041	<s> HENNY
-2.786041	<s> HOIRUL
-2.30892	<s> IA
-2.786041	<s> IHSAN
-2.786041	<s> IMAM
-2.30892	<s> INI
-2.786041	<s> INSIDEN
-2.786041	<s> INTERUPSI
-2.786041	<s> IVAN
-2.786041	<s> JADI
-2.786041	<s> JAM
-2.30892	<s> JANGAN
-2.786041	<s> JEMAAH
-2.786041	<s> JENAZAH
-2.786041	<s> JENDERAL
-2.786041	<s> JENDRAL
-2.786041	<s> JENIS
-2.786041	<s> JOKO
-2.786041	<s> JUGSOR
-2.30892	<s> KALAU
-2.786041	<s> KALIAN
-2.786041	<s> KAMI
-2.786041	<s> KAMPUNG
-2.786041	<s> KAMUS
-2.485011	<s> KAPAL
-2.786041	<s> KAPOLRES
-2.786041	<s> KAPUSPENKUM
-2.786041	<s> KARL
-2.786041	<s> KATA
-2.786041	<s> KEEMPAT
-2.786041	<s> KEMBALI
-2.786041	<s> KEMUDIAN
-2.786041	<s> KEMUNGKINAN
-2.485011	<s> KENAPA
-2.30892	<s> KEPALA
-2.786041	<s> KEPUTUSANNYA
-2.786041	<s> KERAGUAN
-2.786041	<s> KERINDUAN
-2.786041	<s> KESATUAN
-2.786041	<s> KETETAPAN
-2.786041	<s> KETIGA
-2.786041	<s> KETIKA
-2.786041	<s> KETUA
-2.485011	<s> KH
-2.786041	<s> KKB
-2.786041	<s> KOMISI
-2.786041	<s> KOMITMEN
-2.786041	<s> KONFLIK
-2.786041	<s> KOORDINASI
-2.786041	<s> KUASA
-2.786041	<s> LALU
-2.786041	<s> LANGKAH
-2.786041	<s> LANSKAP
-2.786041	<s> LIMA
-2.786041	<s> LOEBBY
-2.786041	<s> MAAF
-2.786041	<s> MAJALAH
-2.786041	<s> MAKA
-2.786041	<s> MAKASIH
-2.786041	<s> MALAM
-2.786041	<s> MANAJER
-2.786041	<s> MANCHESTER
-2.485011	<s> MANUSIA
-2.786041	<s> MAQDIR
-2.786041	<s> MASJID
-2.786041	<s> MASYARAKAT
-2.786041	<s> MEGAWATI
-2.786041	<s> MELALUI
-2.786041	<s> MENGAPA
-2.786041	<s> MENKOP
-2.786041	<s> MENLU
-2.485011	<s> MENTERI	-0.3899711
-2.183981	<s> MENURUT
-2.087071	<s> MEREKA
-2.786041	<s> METODE
-2.786041	<s> MINGGU
-2.786041	<s> MPR
-2.786041	<s> MULLAH
-2.786041	<s> MUNGKIN
-2.786041	<s> NAMA
-2.30892	<s> NAMUN
-2.786041	<s> NANTI
-2.786041	<s> NASKAH
-2.786041	<s> NEGARA
-2.786041	<s> NTT
-2.786041	<s> OSAMA
-2.786041	<s> OTTMAR
-2.30892	<s> PADAHAL
-2.786041	<s> PAK
-2.485011	<s> PASALNYA
-2.786041	<s> PEDAGANG
-2.786041	<s> PELAKU
-2.786041	<s> PEMBAKARAN
-2.30892	<s> PEMERINTAH
-2.786041	<s> PENANGGUHAN
-2.786041	<s> PENETAPAN
-2.786041	<s> PENIPU
-2.786041	<s> PENYEBAB
-2.786041	<s> PERAMPOKAN
-2.786041	<s> PERATURAN
-2.786041	<s> PERDANA
-2.786041	<s> PERINGKAT
-2.786041	<s> PERSOALAN
-2.786041	<s> PERSONEL
-2.786041	<s> PERTAMINA
-2.786041	<s> PERUSAHAAN
-2.786041	<s> POLISI
-2.30892	<s> PRESIDEN
-2.786041	<s> RAJA
-2.786041	<s> RAPAT
-2.786041	<s> RASANYA
-2.786041	<s> REAKSI
-2.786041	<s> REKTOR
-2.485011	<s> RENCANA
-2.786041	<s> RENOVASI
-2.786041	<s> REPUBLIK
-2.786041	<s> ROBERT
-2.30892	<s> ROMBONGAN	-0.01772877
-2.786041	<s> SAAT
-2.786041	<s> SAID
-2.786041	<s> SALAH
-2.786041	<s> SANGAT
-2.786041	<s> SARAH
-2.786041	<s> SATU
-2.786041	<s> SEBELUMNYA
-2.786041	<s> SECARA
-2.786041	<s> SEDANG
-2.786041	<s> SEKITAR
-2.786041	<s> SELAIN
-2.786041	<s> SELAMA
-2.183981	<s> SEMENTARA	-0.09691
-2.786041	<s> SEMOGA
-2.485011	<s> SEORANG
-2.786041	<s> SEPERTI
-2.786041	<s> SEPULUH
-2.786041	<s> SERATUS
-2.786041	<s> SETELAH
-2.786041	<s> SHEVCHENKO
-2.786041	<s> SIAPA
-2.786041	<s> SIDANG
-2.786041	<s> SIMMONDS
-2.786041	<s> SISI
-2.786041	<s> SISTEM
-2.786041	<s> SKYLITE
-2.786041	<s> SOEHARTO
-2.786041	<s> SOFJAN
-2.786041	<s> SOFYAN
-2.786041	<s> SOLOWIEJCZYK
-2.786041	<s> STATUS
-2.786041	<s> SUASANA
-2.485011	<s> SUPAYA
-2.786041	<s> SURAT
-2.786041	<s> SUWARTOYO
-2.786041	<s> TABRAKAN
-2.786041	<s> TAHUN
-2.786041	<s> TAOLU
-2.786041	<s> TAYANGAN
-2.786041	<s> TEGUH
-2.786041	<s> TEKANAN
-2.786041	<s> TENTU
-2.786041	<s> TERJADI
-2.786041	<s> TETAPI
-2.786041	<s> THAILAND
-2.786041	<s> TIAP
-2.00789	<s> TIGA
-2.786041	<s> TOKOH
-2.786041	<s> TONI
-2.786041	<s> TOR
-2.786041	<s> TYX
-2.786041	<s> UJAR
-2.30892	<s> UNTUK
-2.786041	<s> UPJA
-2.786041	<s> USS
-2.786041	<s> WAKAPOLRI
-2.786041	<s> WALJHI
-2.786041	<s> WARGA
-2.786041	<s> WASIT
-2.786041	<s> WWW
-2.786041	<s> XANANA
-2.786041	<s> YANG
-2.786041	<s> YUSRIL
-2.786041	<s> ZAENUDDIN
-2.786041	<s> ZOHRA
-0.30103	AB THREE
-0.30103	ABBA GOLD
-0.30103	ABDI DARMAWAN
-0.30103	ABDUL JALIL
-0.30103	ABDULLAH GYMNASTIAR
-0.69897	ABDURRAHMAN </s>
-0.39794	ABDURRAHMAN WAHID
-0.30103	ABG </s>
-0.30103	ABSENNYA ALEXANDER
-0.7781513	ABU BAKAR
-0.7781513	ABU DHABI
-0.7781513	ABU SOFYAN
-1.079181	ACARA AKAN
-0.60206	ACARA ITU
-1.079181	ACARA LIPUTAN
-1.079181	ACARA LIVE
-1.079181	ACARA NONTONNYA
-0.8129134	ACEH </s>
-1.113943	ACEH BESAR
-1.113943	ACEH DARUSSALAM
-1.113943	ACEH NIAS
-1.113943	ACEH TIMUR
-1.113943	ACEH UTARA
-1.20412	ADA HAMBATAN
-1.20412	ADA KEAJAIBAN
-1.20412	ADA KEPUTUSAN
-1.20412	ADA LAGI
-1.20412	ADA MAIN
-1.20412	ADA PULA
-1.20412	ADA TINDAKAN
-1.20412	ADA YANG
-1.690196	ADALAH ANGGOTA
-1.690196	ADALAH BAHAN
-1.690196	ADALAH CALON
-1.690196	ADALAH HIZBULLAH
-1.690196	ADALAH HONG
-1.690196	ADALAH HYDRAULIC
-1.690196	ADALAH IBADAH
-1.690196	ADALAH JENIS
-1.690196	ADALAH KARANG
-1.690196	ADALAH KARO
-1.690196	ADALAH KHOIRUL
-1.690196	ADALAH MANTAN
-1.690196	ADALAH MASJID
-1.690196	ADALAH MULYO
-1.690196	ADALAH NAMA
-1.389166	ADALAH SALAH
-1.690196	ADALAH SATU
-1.690196	ADALAH SEBUAH
-1.690196	ADALAH SINGKATAN
-1.690196	ADALAH SISI
-1.690196	ADALAH TATHAWWU
-1.690196	ADALAH WAHYU
-1.690196	ADALAH WEBSITE
-1.690196	ADALAH ZLATKO
-0.60206	ADANYA KOMPONIS
-0.60206	ADANYA TEROWONGAN
-0.30103	ADAPUN NANCY
-0.30103	ADI PANDAI
-0.30103	ADIORA </s>
-0.30103	ADISUSANTO SJ
-0.30103	ADIYAKSA DAN
-0.30103	ADLANI DAN
-0.30103	ADNAN BUYUNG
-0.30103	ADVOKASI PUSAT
-0.544068	AFGANISTAN </s>
-0.845098	AFGANISTAN DAN
-0.845098	AFGANISTAN TENGAH
-0.30103	AFP MEMBANTAH
-0.30103	AGAMA DIWAKILI
-0.7781513	AGENDA AGENDA
-0.7781513	AGENDA PERJALANAN
-0.7781513	AGENDA PERUBAHAN
-0.30103	AGIL MENGATAKAN
-0.30103	AGNIEZKA ADALAH
-0.60206	AGUS BUDIMAN
-0.60206	AGUS DAN
-0.30103	AGUSTINE NANCY
-0.30103	AGVA </s>
-0.7781513	AHLI HEMATOLOGI
-0.7781513	AHLI KESEHATAN
-0.7781513	AHLI MENKO
-0.30103	AHQAM MENGAKU
-0.30103	AI </s>
-0.30103	AIR FRESHENER
-0.30103	AJWAR MENENTANG
-1.653213	AKAN BERBUAT
-1.653213	AKAN BERPENGARUH
-1.653213	AKAN BERTINDAK
-1.653213	AKAN DAPAT
-1.653213	AKAN DIADAKAN
-1.653213	AKAN DILANDA
-1.653213	AKAN DITANGANI
-1.653213	AKAN DITEMPATKAN
-1.653213	AKAN DIWAKILI
-1.653213	AKAN JAUH
-1.653213	AKAN KAMI
-1.653213	AKAN KITA
-1.653213	AKAN MEMAINKAN
-1.653213	AKAN MEMBENCI
-1.653213	AKAN MENAMBAH
-1.653213	AKAN MENDEGRADASIKAN
-1.352183	AKAN MENJADI
-1.653213	AKAN SANGAT
-1.653213	AKAN SEGERA
-1.653213	AKAN TERDETEKSI
-1.653213	AKAN TERJADINYA
-1.653213	AKAN TERUS
-0.30103	AKEN I
-0.30103	AKHIR YANG
-0.30103	AKHMAD HERAMUDIN
-0.7781513	AKIBAT DARI
-0.7781513	AKIBAT TEKANAN
-0.7781513	AKIBAT TIGA
-0.30103	AKIBATNYA MASUKAN
-0.30103	AKTIVIS LASKAR
-0.30103	AKTRIS LEGENDARIS
-1.079181	AL AQSA
-1.079181	AL FAROQ
-1.079181	AL IQTISSADIA
-1.079181	AL LETDA
-1.079181	AL MUJAHIR
-1.079181	AL QURAN
-0.30103	ALAM SEKITARNYA
-0.30103	ALASAN MEDIS
-0.60206	ALASANNYA </s>
-0.60206	ALASANNYA BELUM
-0.30103	ALAT MUSIK
-0.60206	ALBUM ABBA
-0.60206	ALBUM SUBJECT
-0.30103	ALEKX MANUPUTTY
-0.30103	ALEX FERGUSON
-0.60206	ALEXANDER DOWNER
-0.60206	ALEXANDER MOSTOVOI
-0.30103	ALFA MENJADI
-0.30103	ALI DAN
-0.30103	ALIMUDDIN MENDAMPINGI
-0.30103	ALMARHUM SECARA
-0.30103	ALQAEDA DAN
-0.30103	ALQURAN MENGINGATKAN
-0.30103	AMAZON EXPLORER
-0.30103	AMEDEO CARBONI
-0.7403627	AMERIKA </s>
-1.041393	AMERIKA KE
-1.041393	AMERIKA MENYERAH
-1.041393	AMERIKA SEPAKAT
-1.041393	AMERIKA SERIKAT
-0.30103	AMPUH </s>
-0.30103	ANAK KELAS
-0.30103	ANAM BERPENDAPAT
-0.30103	ANCAMAN ITU
-0.30103	ANDA DAPAT
-0.30103	ANDRAE PERNAH
-0.30103	ANDYANTO SALAH
-1.079181	ANGGOTA ALQAEDA
-1.079181	ANGGOTA FBR
-1.079181	ANGGOTA FORDEM
-1.079181	ANGGOTA HIMPUNAN
-1.079181	ANGGOTA KOMISI
-1.079181	ANGGOTA TIM
-0.30103	ANGIE JUGA
-0.30103	ANGKA TERTINGGI
-0.30103	ANGKASA SEPERTI
-0.30103	ANGKATAN BERSENJATA
-0.30103	ANGLO SAXON
-0.30103	ANJLOK DI
-1.146128	ANTARA KEDUA
-1.146128	ANTARA KEPOLISIAN
-0.447158	ANTARA LAIN
-1.146128	ANTARA OKNUM
-1.146128	ANTARA PETANI
-0.7781513	ANTARANYA DAMPAK
-0.7781513	ANTARANYA MUHAMMAD
-0.7781513	ANTARANYA REKTOR
-0.30103	ANTHRAX WABAH
-0.30103	ANUMERTA OLEH
-0.30103	ANWAR MENGATAKAN
-0.6532125	APA APA
-0.9542425	APA KABAR
-0.9542425	APA KARENA
-0.9542425	APA PADAHAL
-0.7781513	APAKAH KAMU
-0.7781513	APAKAH KEPUTUSAN
-0.7781513	APAKAH PESERTA
-0.60206	APALAGI PIHAK
-0.60206	APALAGI SAYA
-0.30103	APARAT KEAMANAN
-0.30103	APBN </s>
-0.845098	API </s>
-0.544068	API DI
-0.845098	API MUTIARA
-0.30103	AQSA TERLETAK
-0.30103	AQUINO </s>
-0.30103	ARABIA </s>
-0.60206	ARAH TIMUR
-0.60206	ARAH YANG
-0.30103	ARANTXA SANCHEZ
-0.60206	ARIF ARRYMAN
-0.60206	ARIF DAN
-0.30103	ARIFIN PELAKU
-0.30103	ARITONANG </s>
-0.30103	ARQAM DIKATEGORIKAN
-0.30103	ARROYO SAAT
-0.30103	ARRYMAN ADALAH
-0.30103	ARTHO MUFZAR
-0.30103	ARUS VALINDO
-0.30103	ARY SUTA
-1.113943	AS </s>
-1.113943	AS BUKANLAH
-0.8129134	AS DALAM
-1.113943	AS DIKABARKAN
-1.113943	AS PEMBUAT
-1.113943	AS SA
-0.60206	ASAP KENDARAAN
-0.60206	ASAP TEBAL
-0.30103	ASAS KEADILAN
-0.60206	ASIA </s>
-0.60206	ASIA DISUSUL
-0.60206	ASING </s>
-0.60206	ASING YANG
-0.30103	ASPEK SHOWBIZ
-0.30103	ASSIDIQQIAH MERUYA
-0.30103	ASTAGFIRULLAH </s>
-0.30103	ASTON VILLA
-0.30103	ASURANSI TERSEBUT
-0.30103	ASYRAF </s>
-0.30103	AT TAQWA
-0.30103	ATAL BEHARI
-1	ATAS BANTUANNYA
-1	ATAS HASIL
-1	ATAS PANGGUNG
-1	ATAS PENANGKAPAN
-1	ATAS SETIAP
-1.50515	ATAU BUNKER
-1.50515	ATAU CNRM
-1.50515	ATAU DI
-1.50515	ATAU HATI
-1.50515	ATAU HDC
-1.50515	ATAU HUKUM
-1.50515	ATAU ITECEZET
-1.50515	ATAU LABFOR
-1.50515	ATAU LEBIH
-1.50515	ATAU MENGGELAR
-1.50515	ATAU MINYAK
-1.50515	ATAU PADANGBAI
-1.50515	ATAU PENCAIRAN
-1.50515	ATAU SALAH
-1.50515	ATAU VMI
-1.50515	ATAU ZERO
-0.30103	ATRAKSI KEMBANG
-0.30103	AUDI BERHASIL
-0.30103	AUSTRIA YAITU
-0.30103	AVI MERAIH
-0.30103	AVTUR ADALAH
-0.30103	AWAN DI
-0.60206	AWARD </s>
-0.60206	AWARD DAN
-0.30103	AYAM BAKAR
-0.30103	AZAM ISLAMABAD
-0.30103	AZIZ DAN
-0.30103	AZMAN USMANUDDIN
-0.30103	AZWAR MENYAYANGKAN
-0.7781513	B SATU
-0.7781513	B SERIBU
-0.7781513	B TERBAIK
-0.30103	BAASYIR MEMPRAPERADILANKAN
-0.30103	BADA ACEH
-0.30103	BADAI TROPIS
-0.60206	BADAN GIJZELING
-0.60206	BADAN TERHADAP
-0.30103	BAGAIMANA JIKA
-0.30103	BAGI RUSIA
-0.30103	BAGIAN TIMUR
-0.69897	BAHAN BAKAR
-0.39794	BAHAN PELEDAK
-0.60206	BAHKAN BUKAN
-0.60206	BAHKAN UNDANG
-0.30103	BAHU MEMBAHU
-1.255273	BAHWA DIRINYA
-1.255273	BAHWA HARI
-1.255273	BAHWA KLIENNYA
-1.255273	BAHWA NEGOSIASI
-1.255273	BAHWA PADA
-1.255273	BAHWA PEMERINTAHAN
-1.255273	BAHWA PERNYATAAN
-1.255273	BAHWA PROGRAM
-1.255273	BAHWA TIGA
-0.30103	BAIHAQI DI
-0.7781513	BAKAR BAASYIR
-0.7781513	BAKAR PESAWAT
-0.7781513	BAKAR WONG
-0.30103	BALIK PETANI
-0.30103	BALKAN FRANJO
-0.30103	BANDANG </s>
-1	BANDARA DI
-1	BANDARA HASANUDDIN
-1	BANDARA INTERNASIONAL
-1	BANDARA NGURAH
-1	BANDARA PENJAHAT
-0.30103	BANDUNG </s>
-0.60206	BANGKU PENGEMUDI
-0.60206	BANGKU SMA
-0.60206	BANGSA INDONESIA
-0.60206	BANGSA INI
-0.60206	BANJIR </s>
-0.60206	BANJIR BANDANG
-0.7781513	BANK AKEN
-0.7781513	BANK LIPPO
-0.7781513	BANK MASHIL
-0.7781513	BANTUAN CGI
-0.7781513	BANTUAN KEPADA
-0.7781513	BANTUAN TEKNIS
-0.30103	BANTUANNYA SEBULAN
-0.9542425	BANYAK DIBUDIDAYAKAN
-0.9542425	BANYAK KALANGAN
-0.9542425	BANYAK KENDALA
-0.6532125	BANYAK ORANG
-0.30103	BANYUMAS </s>
-0.30103	BANYUWANGI LUKA
-0.30103	BARAK PENAMPUNGAN
-0.30103	BARANG BUKTI
-0.60206	BARAT </s>
-0.60206	BARAT JUGA
-0.30103	BARENG ANAK
-0.30103	BARNA SUMANTRI
-0.30103	BARREL </s>
-0.30103	BARTHEZ </s>
-0.30103	BARTOK LIZT
-0.7781513	BARU ATAU
-0.7781513	BARU BERANGKAT
-0.7781513	BARU YANG
-0.30103	BASIS BERAWAL
-0.30103	BATU UNTUK
-0.60206	BAWAH POHON
-0.60206	BAWAH TANAH
-0.30103	BAYERN MUENCHEN
-0.60206	BAYI MEMERLUKAN
-0.60206	BAYI PERTAMA
-0.30103	BCA HAMPIR
-0.30103	BEBAS DARI
-0.60206	BEBERAPA PEKERJAAN
-0.60206	BEBERAPA REFERENSI
-0.60206	BEGITU MEMAHAMI
-0.60206	BEGITU PEMIMPIN
-0.30103	BEHARI VAJPAYE
-0.30103	BEIJING SAAT
-0.30103	BEJBEL </s>
-0.30103	BEKASI SELATAN
-0.39794	BEKERJA SAMA	-0.3309932
-0.69897	BEKERJA UNTUK
-0.30103	BELAKA DENGAN
-0.30103	BELAKANG KANAN
-0.30103	BELAS DERAJAT
-0.30103	BELFAS MEMFASILITASI
-0.9777236	BELUM ADA
-1.278754	BELUM AKAN
-1.278754	BELUM DAPAT
-1.278754	BELUM MAU
-1.278754	BELUM MENERIMA
-1.278754	BELUM MENGERJAKAN
-1.278754	BELUM MENGHAYATI
-1.278754	BELUM SEMBUH
-1.278754	BELUM SIAP
-0.60206	BENAR BENAR
-0.60206	BENAR DIPERTIMBANGKAN
-0.30103	BENCANA GEOLOGI
-0.30103	BENDERA LAMA
-0.60206	BENTUK BANTUAN
-0.60206	BENTUK GRUP
-0.09691001	BERADA DI
-1	BERANGKAT DENGAN
-1	BERANGKAT MENUJU
-1	BERANGKAT PUKUL
-1	BERANGKAT SABTU
-1	BERANGKAT SESUAI
-0.30103	BERAPA </s>
-0.30103	BERARTI </s>
-0.30103	BERAWAL RAPAT
-0.30103	BERBAGAI KOLABORASI
-0.30103	BERBAGI TERITORI
-0.30103	BERBAHASA RUSIA
-0.30103	BERBALIK PADA
-0.1760913	BERBEDA </s>
-0.30103	BERBICARA DI
-0.30103	BERBOBOT </s>
-0.60206	BERBUAT APA
-0.60206	BERBUAT NEKAT
-0.30103	BERDASARKAN PENGALAMAN
-0.30103	BERDEMONSTRASI SAMBIL
-0.30103	BERFUNGSI MELAKUKAN
-0.60206	BERHASIL MENANGKAP
-0.60206	BERHASIL MENCIDUK
-0.30103	BERINGIN DI
-0.90309	BERITA BERITA
-0.90309	BERITA DUKA
-0.90309	BERITA TENTANG
-0.90309	BERITA VERSI
-0.30103	BERITAHUKAN JAUH
-0.7781513	BERJALAN DI
-0.7781513	BERJALAN KE
-0.7781513	BERJALAN LANCAR
-0.30103	BERJANGKIT DI
-0.60206	BERKAITAN DENGAN
-0.60206	BERKAITAN KONGRES
-0.30103	BERKAT GOL
-0.30103	BERKEDOK SEBAGAI
-0.30103	BERKEKUATAN SEBANDING
-0.30103	BERKELANA DI
-0.30103	BERLINDUNG DI
-0.60206	BERMAIN ALAT
-0.60206	BERMAIN SEBAGAI
-0.30103	BERMALAM SERTA
-0.30103	BERMOTOR </s>
-0.30103	BERMULA DARI
-0.60206	BERNARD MENURUN
-0.60206	BERNARD SIHOTANG
-0.30103	BERNOMOR POLISI
-0.30103	BEROBAT KE
-0.30103	BERPELAT NOMOR
-0.60206	BERPENDAPAT BAHWA
-0.60206	BERPENDAPAT BERBEDA
-0.30103	BERPENGARUH PADA
-0.30103	BERPIDATO DI
-0.30103	BERPROMOSI KEPADA
-0.30103	BERSALAMAN DENGAN
-0.90309	BERSAMA </s>
-0.90309	BERSAMA BOYKE
-0.90309	BERSAMA DENGAN
-0.90309	BERSAMA SUAMINYA
-0.30103	BERSAMAAN DENGAN
-0.30103	BERSEDIA MENERIMA
-0.30103	BERSEMBUNYI DI
-0.60206	BERSENJATA </s>
-0.60206	BERSENJATA VENEZUELA
-0.30103	BERSIKAP KESATRIA
-0.30103	BERTABURAN BEGITU
-0.30103	BERTEDUH DI
-0.30103	BERTENAGA KUDA
-0.30103	BERTINDAK </s>
-0.30103	BERTURUT TURUT
-0.30103	BERUCAP ITU
-0.60206	BERUPA SATU
-0.60206	BERUPA UTANG
-0.60206	BERWARNA BIRU
-0.60206	BERWARNA MERAH
-0.30103	BESAR </s>
-0.30103	BESUK ITU
-0.30103	BHAKTI </s>
-0.30103	BI MASIH
-0.30103	BIDANG KONSULER
-0.30103	BIGXU </s>
-0.30103	BILATERAL ANTARA
-0.30103	BIMAS ISLAM
-0.60206	BIN LADEN
-0.60206	BIN NASSER
-0.30103	BIRD DARI
-0.30103	BIRU </s>
-1.20412	BISA DENGAN
-1.20412	BISA DILEPASKAN
-1.20412	BISA DISAHKAN
-1.20412	BISA DITERAPKAN
-1.20412	BISA MELAHIRKAN
-1.20412	BISA MELAYANI
-1.20412	BISA MENEMBUS
-1.20412	BISA TAMPIL
-0.30103	BISHOP LUTHERAN
-0.30103	BISNISNYA </s>
-0.30103	BLACK SEPTEMBER
-0.30103	BLESZINSKY MUNCUL
-0.1760913	BOEDIONO </s>
-0.30103	BOGOR MINGGU
-0.60206	BOLA BARENG
-0.60206	BOLA LIGA
-0.30103	BOLEH LIHAT
-0.30103	BOLTON WANDERERS
-0.30103	BOM RAKITAN
-0.30103	BOX ITU
-0.30103	BOYCE MENYATAKAN
-0.30103	BOYKE RORING
-0.60206	BPPN </s>
-0.60206	BPPN JUGA
-0.30103	BQ YANG
-0.30103	BRAMHS DAN
-0.30103	BRAXTON MENJADI
-0.60206	BRIGJEN EDWARD
-0.60206	BRIGJEN LUDWIJK
-0.30103	BROMARTANI </s>
-0.30103	BUAH BAHAN
-0.30103	BUATAN JERMAN
-0.30103	BUDIMAN DIKABARKAN
-1	BUKAN HANYA
-1	BUKAN LAGI
-1	BUKAN MUSTAHIL
-1	BUKAN REVOLUSI
-1	BUKAN URUSAN
-0.30103	BUKANLAH TRAGEDI
-0.30103	BUKIT DURI
-0.30103	BUKTI BERUPA
-0.7781513	BUKU </s>
-0.7781513	BUKU BUKU
-0.7781513	BUKU FILSAFAT
-0.7781513	BULAN LAGI
-0.7781513	BULAN NOVEMBER
-0.7781513	BULAN RAMADHAN
-0.30103	BUNGA DI
-0.30103	BUNGSU MUHAMMAD
-0.30103	BUNKER BAWAH
-0.30103	BUNUH DIRI
-0.30103	BUPATI ACEH
-0.30103	BURSA SAHAM
-0.30103	BURUNG SERIATOPORA
-0.60206	BUS CV
-0.60206	BUS DAMRI
-0.30103	BUSANA BERBEDA
-0.30103	BUSH JUGA
-0.30103	BUWONO </s>
-0.30103	BUYUNG NASUTION
-0.30103	BYPASS KLATEN
-0.1760913	CABANG WUSHU
-0.30103	CALON DARI
-0.30103	CALTEX MENYATAKAN
-0.30103	CANIO DISAMBUT
-0.30103	CAO DIPERLUKAN
-0.30103	CARBONI DAN
-0.30103	CB YANG
-0.30103	CC DUA
-0.30103	CDMA DUA
-0.30103	CEDERA TERNYATA
-0.30103	CEKO DIWAKILI
-0.30103	CELCIUS </s>
-0.30103	CENDRAWASIH SEDANG
-0.30103	CENTER ATAU
-0.30103	CENTRA ARUS
-0.7781513	CEPAT DISIAPKAN
-0.7781513	CEPAT ISTIRAHAT
-0.7781513	CEPAT MEMERIKSA
-0.30103	CERAH SEDANGKAN
-0.30103	CETAK </s>
-0.30103	CF WINTER
-0.30103	CGI DAN
-0.30103	CHAERUDDIN ISMAIL
-0.30103	CHAERUL AZWAR
-0.30103	CHAGQUAN MERUPAKAN
-0.30103	CHANGE </s>
-0.30103	CHAUVINISME </s>
-0.30103	CHOPIN BRAMHS
-0.30103	CHRIS SINER
-0.30103	CIJANTUNG MEMPUNYAI
-0.30103	CINA TANG
-0.30103	CINTA YANG
-0.30103	CLUB III
-0.30103	CNRM </s>
-0.30103	COIMBRA PORTUGAL
-0.30103	COLLEGE YOGYAKARTA
-0.30103	COM DOT
-0.60206	CONTOH DARAH
-0.60206	CONTOH YANG
-0.30103	COWPENS TELAH
-0.30103	CPM YONIF
-0.30103	CPO ATAU
-0.7781513	CQ ATAS
-0.7781513	CQ KEPALA
-0.7781513	CQ KORPS
-0.30103	CRAWFORD BERBALIK
-0.30103	CS </s>
-0.30103	CUACA DI
-0.30103	CUNGKILAN PAOLO
-0.30103	CV PELANGI
-0.30103	DAHLAN </s>
-1.311754	DALAM </s>
-1.612784	DALAM ACARA
-1.311754	DALAM BENTUK
-1.612784	DALAM DALAM
-1.612784	DALAM DUA
-1.612784	DALAM FILM
-1.612784	DALAM JUMPA
-1.135663	DALAM KASUS
-1.612784	DALAM KEADAAN
-1.612784	DALAM KLIPVIDEO
-1.612784	DALAM KONFERENSI
-1.612784	DALAM LAGU
-1.612784	DALAM LIRIKNYA
-1.612784	DALAM SEBUAH
-1.612784	DALAM SEL
-1.612784	DALAM SUASANA
-1.311754	DALAM WAKTU
-1.612784	DALAM ZNET
-0.60206	DAMAI DENGAN
-0.60206	DAMAI MALINO
-0.60206	DAMPAK EKONOMI
-0.60206	DAMPAK NEGATIF
-0.30103	DAMRI BERNOMOR
-2.225309	DAN AS
-2.225309	DAN B
-1.924279	DAN BERNARD
-2.225309	DAN BOLTON
-2.225309	DAN BUKAN
-2.225309	DAN CAO
-2.225309	DAN CENTRA
-2.225309	DAN CF
-2.225309	DAN CHRIS
-2.225309	DAN DAHLAN
-2.225309	DAN DICOCOKKAN
-2.225309	DAN DIHADIRI
-2.225309	DAN DIKEROYOK
-2.225309	DAN DITODONG
-2.225309	DAN EDGAR
-2.225309	DAN EKSPLOITASI
-2.225309	DAN EXHAUST
-2.225309	DAN HAJI
-2.225309	DAN HARUS
-2.225309	DAN HIJAU
-2.225309	DAN HONGKONG
-2.225309	DAN I
-2.225309	DAN IBADAH
-2.225309	DAN INVESTASI
-2.225309	DAN JATENG
-2.225309	DAN JIHAD
-2.225309	DAN KARANG
-2.225309	DAN KASAROH
-2.225309	DAN KAUFMAN
-2.225309	DAN KETIGA
-2.225309	DAN KEUANGAN
-2.225309	DAN KHAIRUL
-2.225309	DAN KOMPYANG
-2.225309	DAN KOPASSUS
-2.225309	DAN KRITIK
-2.225309	DAN KUPWARA
-2.225309	DAN LAIN
-2.225309	DAN LAINNYA
-2.225309	DAN MEGA
-2.225309	DAN MEMBIARKAN
-2.225309	DAN MENENGAH
-2.225309	DAN MENGATAKAN
-2.225309	DAN MENGHIRUPNYA
-2.225309	DAN MENYATAKAN
-2.225309	DAN MIMPI
-2.225309	DAN MITIGASI
-2.225309	DAN MUAK
-2.225309	DAN MUSIC
-2.225309	DAN NEPOTISME
-2.225309	DAN NISTELROOY
-2.225309	DAN OKNUM
-2.225309	DAN OPRESI
-2.225309	DAN P
-2.225309	DAN PAKISTAN
-2.225309	DAN PANAS
-2.225309	DAN PELLEGRINO
-2.225309	DAN PEMIKIRAN
-2.225309	DAN PENADBIRAN
-2.225309	DAN PENAHANAN
-2.225309	DAN PETANI
-2.225309	DAN PIMPINAN
-2.225309	DAN PRAMUKA
-2.225309	DAN RADEK
-2.225309	DAN RATU
-1.924279	DAN ROMBONGAN
-2.225309	DAN RUMAH
-2.225309	DAN SEBAGAINYA
-2.225309	DAN SEJUMLAH
-2.225309	DAN SEKRETARIS
-2.225309	DAN SEMPAT
-2.225309	DAN SI
-2.225309	DAN STAFNYA
-2.225309	DAN STASIUN
-2.225309	DAN SYLVIA
-2.225309	DAN TIDAK
-2.225309	DAN TOPENG
-2.225309	DAN TRANSIT
-2.225309	DAN USAHA
-2.225309	DAN WARGA
-2.225309	DAN WASPADA
-2.225309	DAN YAPPIKA
-2.225309	DAN ZAENUDIN
-2.225309	DAN ZHENG
-0.30103	DANA REBOISASI
-0.30103	DANCE </s>
-0.60206	DANGDUT ELVY
-0.60206	DANGDUT RHOMA
-0.30103	DANSA TEROMPET
-1	DAPAT DILAKUKAN
-1	DAPAT DIPACU
-1	DAPAT MEMBACA
-1	DAPAT MENEMBAK
-1	DAPAT MENGHADIRI
-0.60206	DARAH DARI
-0.60206	DARAH MARIO
-1.845098	DARI ALBUM
-1.845098	DARI ASAP
-1.845098	DARI BEBERAPA
-1.845098	DARI BOGOR
-1.845098	DARI CEDERA
-1.845098	DARI DUA
-1.845098	DARI DULU
-1.845098	DARI FRAKSI
-1.845098	DARI FRETILIN
-1.845098	DARI INDONESIA
-1.845098	DARI JALAN
-1.845098	DARI JAWA
-1.845098	DARI JAZZ
-1.845098	DARI KEDUA
-1.845098	DARI KETIDAKCERMATAN
-1.845098	DARI KROASIA
-1.845098	DARI LAGU
-1.845098	DARI LANGIT
-1.845098	DARI LAPANGAN
-1.845098	DARI LIMA
-1.845098	DARI LINKVPING
-1.845098	DARI MENTERI
-1.845098	DARI NEWCASTLE
-1.845098	DARI PENDAPAT
-1.845098	DARI PERTEMUAN
-1.845098	DARI PERTENGKARAN
-1.845098	DARI POTRET
-1.845098	DARI PROF
-1.845098	DARI RANGKAIAN
-1.845098	DARI RUANG
-1.845098	DARI STASIUN
-1.845098	DARI TUBUH
-1.845098	DARI UNHCR
-1.845098	DARI UNIT
-1.845098	DARI UNIVERSITAS
-0.30103	DARMAWAN MENUDING
-0.30103	DARUL ARQAM
-0.30103	DARUQUTNI ADIYAKSA
-0.30103	DARUSSALAM SUDAH
-0.60206	DASAR FRAKSI
-0.60206	DASAR UNTUK
-0.30103	DATANG KE
-0.7781513	DATANG SESUDAH
-0.30103	DAUD FORUM
-0.30103	DAVID BERMAIN
-0.30103	DAVIDS SUDAH
-0.30103	DE SUKARNOISASI
-0.30103	DEBAT MAHASISWA
-0.60206	DEBITOR </s>
-0.60206	DEBITOR YANG
-0.30103	DEFOE KE
-0.30103	DEKAT PIHAKNYA
-0.60206	DELAPAN ITU
-0.60206	DELAPAN ORANG
-0.30103	DEMIKIAN JUGA
-1.69897	DENGAN AS
-1.69897	DENGAN ASAS
-1.69897	DENGAN BANTUAN
-1.69897	DENGAN BARTOK
-1.69897	DENGAN BERLINDUNG
-1.69897	DENGAN BUSANA
-1.69897	DENGAN CDMA
-1.69897	DENGAN CEPAT
-1.69897	DENGAN EMPAT
-1.69897	DENGAN EQUITY
-1.69897	DENGAN IKANG
-1.69897	DENGAN JARINGAN
-1.69897	DENGAN JENDERAL
-1.69897	DENGAN KYAI
-1.69897	DENGAN MENCARTER
-1.69897	DENGAN MOBIL
-1.69897	DENGAN MOHAMMAD
-1.69897	DENGAN PELEDAKAN
-1.69897	DENGAN PEMBERANTASAN
-1.69897	DENGAN PEMERINTAH
-1.69897	DENGAN PRAKTIK
-1.69897	DENGAN PT
-1.69897	DENGAN SOUNDING
-1.69897	DENGAN TAFSIRAN
-1.69897	DENGAN WAKTU
-0.7781513	DEPAN ADA
-0.7781513	DEPAN KAWASAN
-0.7781513	DEPAN RUMAH
-0.30103	DEPARTEMEN AGAMA
-0.30103	DEPDIKNAS </s>
-0.30103	DERAJAT CELCIUS
-0.30103	DERMAWAN DAN
-0.30103	DESA LAMGEUEU
-0.30103	DETEKTOR KUMAN
-0.30103	DEWAN PERTAHANAN
-0.30103	DHABI SEBELUM
-0.30103	DHARMA WANITA
-2.285557	DI ABU
-2.285557	DI ACARA
-1.984527	DI ACEH	-0.4045706
-2.285557	DI AFGANISTAN
-2.285557	DI AMERIKA
-2.285557	DI ANGKASA
-1.808436	DI ANTARANYA
-1.984527	DI ASIA
-2.285557	DI ATAS
-2.285557	DI BALIK
-1.808436	DI BANDARA
-2.285557	DI BANGKU
-2.285557	DI BAWAH
-2.285557	DI BEIJING
-2.285557	DI BULAN
-2.285557	DI CANIO
-2.285557	DI CIJANTUNG
-1.984527	DI DALAM
-2.285557	DI DEPAN
-2.285557	DI DISTRIK
-2.285557	DI DPR
-2.285557	DI DUNIA
-2.285557	DI EDINBURGH
-2.285557	DI FINAL
-1.808436	DI GEDUNG
-2.285557	DI HALAMAN
-2.285557	DI HARI
-2.285557	DI HOTEL
-2.285557	DI IGNATIUS
-2.285557	DI INDIA
-2.285557	DI INDONESIA
-2.285557	DI ISLAMABAD
-1.683497	DI JAKARTA	-0.1760913
-1.586587	DI JALAN	-0.0219943
-2.285557	DI JENEWA
-2.285557	DI KANTOR
-2.285557	DI KATHMANDU
-2.285557	DI KAWASAN
-2.285557	DI KELURAHAN
-2.285557	DI KORAN
-2.285557	DI KOTA
-2.285557	DI KUBU
-2.285557	DI KYRGYZSTAN
-2.285557	DI LABORATORIUM
-2.285557	DI LANTAI
-2.285557	DI LOGTRANS
-2.285557	DI LUAR
-2.285557	DI LUXOR
-2.285557	DI MALAYSIA
-2.285557	DI MASJID
-2.285557	DI MPR
-2.285557	DI MUZDALIFAH
-2.285557	DI NEGARA
-2.285557	DI PALANGKARAYA
-2.285557	DI PALESTINA
-2.285557	DI PANGGUNG
-2.285557	DI PARIS
-2.285557	DI PERBATASAN
-2.285557	DI PERPUSTAKAAN
-2.285557	DI PLAZA
-2.285557	DI POLRES
-2.285557	DI PONDOK
-1.984527	DI PROVINSI
-2.285557	DI PUNCAK
-2.285557	DI RIYADH
-2.285557	DI RODA
-2.285557	DI RSCM
-2.285557	DI RUANG
-2.285557	DI RUMAH
-2.285557	DI SALAH
-2.285557	DI SANA
-2.285557	DI SATU
-2.285557	DI SAUDI
-1.984527	DI SEBUAH
-2.285557	DI SEKITAR
-2.285557	DI SITU
-2.285557	DI SWEDIA
-2.285557	DI TELEVISI
-2.285557	DI TEMPAT
-2.285557	DI TENGAH
-1.984527	DI TIMUR	-0.4149733
-2.285557	DI TINGKAT
-2.285557	DI TRAFALGAR
-2.285557	DI UTARA
-2.285557	DI WARTEL
-2.285557	DI WARUNG
-2.285557	DI WILAYAH
-1.146128	DIA DUDUK
-1.146128	DIA MELANTUNKAN
-1.146128	DIA MEMERINTAHKAN
-1.146128	DIA MENGALAHKAN
-1.146128	DIA MENJELASKAN
-1.146128	DIA MENYATAKAN
-1.146128	DIA TIDAK
-0.60206	DIADAKAN DI
-0.60206	DIADAKAN EKS
-0.30103	DIAWALI PEMBACAAN
-0.30103	DIBACAKAN RIWAYAT
-0.30103	DIBAWA LARI
-0.30103	DIBERANGKATKAN BERSAMA
-0.30103	DIBERLAKUKAN DI
-0.30103	DIBICARAKAN KARENA
-0.30103	DIBUDIDAYAKAN SALAH
-0.30103	DICABUT </s>
-0.30103	DICALONKAN OLEH
-0.30103	DICAPAI ALBUM
-0.30103	DICIDUK ITU
-0.30103	DICOCOKKAN DENGAN
-0.30103	DICURIGAI MENYIMPAN
-0.30103	DIDAMPINGI EMPAT
-0.30103	DIDERITA MU
-0.30103	DIDIDIK UNTUK
-0.30103	DIDUDUKI KOPERASI
-0.30103	DIDUGA IQBAL
-0.30103	DIDUKUNG TALIBAN
-0.60206	DIGELAR ACARA
-0.60206	DIGELAR KARYA
-0.60206	DIGUNAKAN ADALAH
-0.60206	DIGUNAKAN OLEH
-0.30103	DIHADAPI PEREKONOMIAN
-0.60206	DIHADIRI OLEH
-0.60206	DIHADIRI SEMUA
-0.30103	DIHAPUSKANNYA PAJAK
-0.30103	DIHUBUNGI OLEH
-0.30103	DIIKUTI OLEH
-0.1760913	DIINGATKAN UNTUK
-0.30103	DIIRINGI MUSIK
-0.30103	DIIZINKAN BEROBAT
-0.30103	DIJADIKAN DASAR
-0.60206	DIKABARKAN BEKERJA
-0.60206	DIKABARKAN KINI
-0.60206	DIKATAKAN AHLI
-0.60206	DIKATAKAN DIKDASMEN
-0.30103	DIKATEGORIKAN SEBAGAI
-0.30103	DIKDASMEN INDRA
-0.30103	DIKEMBALIKAN SELAMA
-0.60206	DIKEMUDIKAN FX
-0.60206	DIKEMUDIKAN ROMLI
-0.30103	DIKEMUKAKAN PROF
-0.30103	DIKENALLAH SOSOK
-0.30103	DIKERJAKAN OLEH
-0.30103	DIKEROYOK MASSA
-0.30103	DIKOORDINIR MUJFABA
-1.176091	DILAKUKAN ANTARA
-1.176091	DILAKUKAN HINGGA
-1.176091	DILAKUKAN ICW
-0.8750613	DILAKUKAN OLEH
-1.176091	DILAKUKAN SEKARANG
-1.176091	DILAKUKAN SETAHUN
-1.176091	DILAKUKAN TELKOM
-0.30103	DILALUI </s>
-0.30103	DILANDA KEHANCURAN
-0.30103	DILAPORKAN KE
-0.30103	DILAPORKANNYA ITU
-0.30103	DILEPAS OLEH
-0.30103	DILEPASKAN DENGAN
-0.30103	DILIMPAHKAN KE
-0.1760913	DIMAKSUDKAN UNTUK
-0.30103	DIMANA TEMPAT
-0.30103	DIMULAI JUMAT
-0.30103	DIN SYAMSUDDIN
-0.30103	DINAS UNTUK
-0.30103	DINILAI INGKAR
-0.30103	DIOPERASI </s>
-0.30103	DIPACU DI
-0.30103	DIPADU DENGAN
-0.30103	DIPERHATIKAN </s>
-0.60206	DIPERIKSA DAN
-0.60206	DIPERIKSA SEBAGAI
-0.30103	DIPERKIRAKAN AKAN
-0.30103	DIPERLOMBAKAN </s>
-0.30103	DIPERLUKAN WAKTU
-0.30103	DIPERTANGGUNGJAWABKAN </s>
-0.30103	DIPERTIMBANGKAN </s>
-0.60206	DIPIMPIN FARID
-0.60206	DIPIMPIN SEORANG
-0.30103	DIPROSES MELALUI
-0.30103	DIRAWAT DI
-0.30103	DIREKTORAT VULKANOLOGI
-0.7781513	DIREKTUR ADVOKASI
-0.7781513	DIREKTUR EXECUTIVE
-0.7781513	DIREKTUR PERUSAHAAN
-1	DIRI </s>
-1	DIRI DAN
-1	DIRI DI
-1	DIRI KARENA
-1	DIRI NABI
-0.30103	DIRINGKUS SATGAS
-0.30103	DIRINTIS OLEH
-0.7781513	DIRINYA </s>
-0.7781513	DIRINYA ADALAH
-0.7781513	DIRINYA TIDAK
-0.30103	DIRJEN BIMAS
-0.60206	DISAHKAN </s>
-0.60206	DISAHKAN TERSEBUT
-0.30103	DISALAHPAHAMI </s>
-0.30103	DISAMBUT OLEH
-0.7781513	DISAMPAIKAN JOHN
-0.7781513	DISAMPAIKAN NORBERTO
-0.7781513	DISAMPAIKAN PADA
-0.30103	DISBURSEMENT ATAU
-0.30103	DISERBU DAN
-0.30103	DISERGAP DAN
-0.30103	DISIAPKAN RUSIA
-0.60206	DISTRIK DISTRIK
-0.60206	DISTRIK PERBATASAN
-0.30103	DISUKAI MASYARAKAT
-0.30103	DISUMBANGKAN MAREK
-0.60206	DISUSUL AKHMAD
-0.60206	DISUSUL MALAYSIA
-0.30103	DITANDATANGANI KETUA
-0.30103	DITANGANI OLEH
-0.30103	DITANGKAP DI
-0.30103	DITANYA DAMPAK
-0.60206	DITARIK KE
-0.60206	DITARIK LOKOMOTIF
-0.30103	DITAYANGKAN MTV
-0.60206	DITEMPATKAN DI
-0.60206	DITEMPATKAN KE
-0.7781513	DITEMUKAN ADALAH
-0.7781513	DITEMUKAN MENYANGKUT
-0.7781513	DITEMUKAN TEWAS
-0.30103	DITERAPKAN UNTUK
-0.30103	DITODONG SENJATA
-0.30103	DITUJU OLEH
-0.30103	DITUNTUT MEMBERIKAN
-0.30103	DIUSULKAN BANYAK
-0.09691001	DIWAKILI OLEH
-0.30103	DKI DAN
-0.30103	DOKTER MUSNI
-0.30103	DOLLAR AS
-0.30103	DONALD H
-0.30103	DOSEN UNIVERSITAS
-0.7781513	DOT COM
-0.7781513	DOT PRAVDA
-0.7781513	DOT UA
-0.30103	DOUBLE FAULT
-0.30103	DOWNER </s>
-0.30103	DPP PARTAI
-0.39794	DPR </s>
-0.69897	DPR LAKSMA
-0.30103	DRAFT KONSTITUSI
-0.30103	DRASTIS </s>
-1.518514	DUA BUAH
-1.518514	DUA F
-1.518514	DUA GELANDANG
-1.518514	DUA KEKALAHAN
-1.518514	DUA KOSONG
-1.518514	DUA MENIT
-1.518514	DUA ORANG
-1.518514	DUA PAKET
-1.518514	DUA PEMERINTAH
-1.518514	DUA PERSONEL
-1.518514	DUA PERUSAHAAN
-1.041393	DUA PULUH
-1.217484	DUA RIBU
-1.518514	DUA RIBUNYA
-1.518514	DUA TAHUN
-0.60206	DUDUK DI
-0.60206	DUDUK KE
-0.30103	DUET PENYERANG
-0.60206	DUKA TERSEBUT
-0.60206	DUKA YANG
-0.30103	DULU BANYAK
-0.30103	DUMAS VALINDO
-0.30103	DUNANT CENTER
-0.7781513	DUNIA PERBANKAN
-0.7781513	DUNIA POLITIK
-0.7781513	DUNIA UNSUR
-0.30103	DUR DAN
-0.30103	DURI </s>
-0.30103	DZULHIJJAH JATUH
-0.30103	E AZAM
-0.30103	EDGAR DAVIDS
-0.30103	EDINBURGH DIGELAR
-0.30103	EDMON TIDAK
-0.30103	EDWARD ARITONANG
-0.30103	EFFENDI MENGATAKAN
-0.30103	EFRAIN VAZQUEZ
-0.30103	EGGI SUJANA
-0.30103	EH AVI
-0.30103	EKONOMI SETELAH
-0.30103	EKS KARYAWAN
-0.30103	EKSPLOITASI </s>
-0.30103	EKSPLORASI DAN
-0.30103	EKSTRA KUAT
-0.30103	ELVY SUKAESIH
-0.30103	ELZA SYARIEF
-0.30103	EMAS LEWAT
-0.30103	EMOI </s>
-1	EMPAT BELAS
-1	EMPAT JAM
-1	EMPAT KALI
-1	EMPAT ORANG
-1	EMPAT PERSONEL
-0.30103	EMVAL TIBA
-0.7781513	ENAM PENUMPANG
-0.7781513	ENAM RATUS
-0.7781513	ENAM SCTV
-0.30103	ENDRIARTONO DIRINYA
-0.30103	ENGGANO HANYA
-0.30103	EQUITY MARKET
-0.30103	ERA MENKO
-0.30103	ERIKSSON TERJAWAB
-0.30103	ESTU SUBUR
-0.30103	ETNIS LAIN
-0.30103	EXCITING KETIKA
-0.30103	EXECUTIVE </s>
-0.30103	EXHAUST </s>
-0.30103	EXPLORER HANYA
-0.30103	EXXON MOBIL
-0.30103	EXXONMOBIL RAKSASA
-0.30103	F </s>
-0.30103	FABIEN BARTHEZ
-0.30103	FAILURE </s>
-0.30103	FAQIH MEGA
-0.60206	FARID MARUF
-0.60206	FARID WAJDI
-0.30103	FAROQ TIDAK
-0.30103	FASHION SHOW
-0.60206	FATWA </s>
-0.60206	FATWA HARUS
-0.30103	FAULT SEMENTARA
-0.30103	FAWZY </s>
-0.30103	FBR </s>
-0.30103	FEITH </s>
-0.30103	FELIX TAMPUBOLON
-0.30103	FELX KEPADA
-0.30103	FERGUSON BELUM
-0.30103	FEROZA </s>
-0.7781513	FILIPINA </s>
-0.7781513	FILIPINA SATU
-0.7781513	FILIPINA TERBENTUK
-0.30103	FILM TERSEBUT
-0.30103	FILSAFAT NIETZCHE
-0.30103	FINAL DIA
-0.30103	FIQH SIYASAH
-0.30103	FIREWORKS MENGADAKAN
-0.30103	FITZPATRICK SETUJU
-0.30103	FOIL BUATAN
-0.30103	FORDEM ANTARA
-0.30103	FORENSIK ATAU
-0.30103	FORUM DEBAT
-0.30103	FOXNEWS ADALAH
-0.90309	FRAKSI </s>
-0.90309	FRAKSI DAN
-0.90309	FRAKSI DI
-0.90309	FRAKSI TIDAK
-0.30103	FRANJO TUDJMAN
-0.30103	FRANKLIN WILLIAM
-0.30103	FRESHENER DAN
-0.30103	FRETILIN UNTUK
-0.30103	FUNGSIONARIS DPP
-0.60206	FX ADISUSANTO
-0.60206	FX MARIO
-0.30103	G VRIENS
-0.30103	GA </s>
-0.30103	GAGAL ADALAH
-0.30103	GAIZKA MENDIETA
-0.30103	GALAXI JAKASETIA
-0.60206	GAM </s>
-0.60206	GAM DI
-0.30103	GAMBAR PUTRA
-0.30103	GAMBIR KE
-0.30103	GANDHI </s>
-0.30103	GANGGUAN INI
-0.30103	GANTI SERATUS
-0.30103	GARLAND </s>
-0.60206	GAWANG ASTON
-0.60206	GAWANG FABIEN
-0.30103	GCG </s>
-0.30103	GDE DERMAWAN
-0.7781513	GEDUNG DEPDIKNAS
-0.7781513	GEDUNG MANGGALA
-0.7781513	GEDUNG SUDIRMAN
-0.30103	GELANDANG BERTENAGA
-0.60206	GELENG GELENG
-0.60206	GELENG KEPALA
-0.30103	GENETIKA </s>
-0.30103	GENTAR MENGHADAPI
-0.30103	GEOLOGI MENGEMUKAKAN
-0.30103	GERAK CEPAT
-0.7781513	GERAKAN TALIBAN
-0.7781513	GERAKAN TANAH
-0.7781513	GERAKAN TERORISME
-0.30103	GERBONG ANJLOK
-0.60206	GERILYA GERILYA
-0.60206	GERILYA YANG
-0.60206	GERUNG DAN
-0.60206	GERUNG MILIK
-0.30103	GIJZELING TIDAK
-0.60206	GILIMANUK </s>
-0.60206	GILIMANUK ATAU
-0.30103	GILIRAN TENDANGAN
-0.30103	GIZJELING ATAU
-0.30103	GLAS JAVNOSTI
-0.30103	GLOBAL BAHWA
-0.60206	GOL PENGHIBUR
-0.60206	GOL TUNGGAL
-0.30103	GOLD LEBIH
-0.30103	GOLDSTEIN BERPROMOSI
-0.30103	GOLKAR RULLY
-0.30103	GONG JUGA
-0.30103	GONZALES UTUSAN
-0.30103	GORAN ERIKSSON
-0.30103	GRANAT UJAR
-0.30103	GROWTH </s>
-0.30103	GRUP GONG
-0.60206	GUGATAN ITU
-0.60206	GUGATAN PRAPERADILAN
-0.30103	GUGUR DI
-0.30103	GUMAY MENGEMUKAKAN
-0.30103	GUMPALAN AWAN
-0.30103	GUNA MENGETAHUI
-0.30103	GUNNAR SOLSKJAER
-0.30103	GUNUNG LOKON
-0.30103	GUS DUR
-0.30103	GYANENDRA </s>
-0.30103	GYMNASTIAR MENYATAKAN
-0.30103	H RUMSFELD
-0.30103	HA NAZRI
-0.30103	HABIBIE SANGAT
-0.30103	HADAR GUMAY
-0.7781513	HADIR DARI
-0.7781513	HADIR DI
-0.7781513	HADIR PADA
-0.30103	HAFIZHAH RAEHANA
-0.30103	HAI SELAMAT
-0.60206	HAJI FAQIH
-0.60206	HAJI TAUFIK
-0.30103	HAKIM YANG
-0.3424227	HAL INI
-0.7403627	HAL ITU
-1.041393	HAL SENADA
-0.30103	HALAMAN PARKIR
-0.30103	HALFVOLLEY MEMBENTUR
-0.30103	HALIMAH MENYEMPATKAN
-0.30103	HAMAS DAN
-0.30103	HAMBATAN </s>
-0.30103	HAMENGKU BUWONO
-0.30103	HAMPIR BERSAMAAN
-0.60206	HAMZAH BARU
-0.60206	HAMZAH HAZ
-1.146128	HANYA AKAN
-1.146128	HANYA BERUCAP
-1.146128	HANYA DALAM
-1.146128	HANYA MAMPU
-1.146128	HANYA MENCATAT
-1.146128	HANYA PERMASALAHAN
-1.146128	HANYA SEBAGAI
-0.30103	HARGA TIKET
-1.176091	HARI </s>
-0.8750613	HARI INI
-1.176091	HARI JUMAT
-1.176091	HARI KALAU
-1.176091	HARI LALU
-1.176091	HARI RABU
-1.176091	HARI SELASA
-0.30103	HARIAN GLAS
-0.30103	HARINYA ADALAH
-0.30103	HARRY LOGWELL
-1.146128	HARUS BEBAS
-1.146128	HARUS DIKERJAKAN
-1.146128	HARUS DIOPERASI
-1.146128	HARUS DIPROSES
-1.146128	HARUS DITUNTUT
-1.146128	HARUS MELANGKAH
-1.146128	HARUS MEMPRIORITASKAN
-0.30103	HASAN LUTFHI
-0.30103	HASANUDDIN MEMBENARKAN
-0.60206	HASIL MUKTAMAR
-0.60206	HASIL STUDI
-0.30103	HASILNYA AKAN
-0.30103	HASJRUL DIMAKSUDKAN
-0.30103	HASYIM MUZADI
-0.30103	HATI NURANI
-0.30103	HAWK YANG
-0.30103	HAYAM WURUK
-0.30103	HAZ HANYA
-0.30103	HDC PIHAK
-0.30103	HEMATOLOGI DAN
-0.30103	HENDAK MENELEPON
-0.30103	HENNY SUPOLO
-0.30103	HENRY DUNANT
-0.30103	HERAMUDIN SUMAYYA
-0.30103	HERUT ISRAEL
-0.60206	HIDUP ALMARHUM
-0.60206	HIDUP DALAM
-0.30103	HIDUPNYA KEPADA
-0.30103	HIJAU </s>
-0.30103	HIMBAUAN KEPADA
-0.30103	HIMPUNAN PANDU
-0.60206	HINGGA ADA
-0.60206	HINGGA SENIN
-0.30103	HITAM DAN
-0.30103	HITZFELD KINI
-0.30103	HIZBULLAH HAMAS
-0.30103	HOIRUL ANAM
-0.30103	HOLLYWOOD JUDY
-0.60206	HONG PEIXING
-0.60206	HONG SHI
-0.30103	HONGKONG </s>
-0.60206	HOTEL </s>
-0.60206	HOTEL LE
-0.30103	HUDBHOY DARI
-1.079181	HUKUM ANGLO
-1.079181	HUKUM BADAN
-1.079181	HUKUM JUAN
-1.079181	HUKUM SESUAI
-1.079181	HUKUM USTADZ
-1.079181	HUKUM YAITU
-0.30103	HUTAN TANAMAN
-0.30103	HYDE PARK
-0.30103	HYDRAULIC FAILURE
-0.30103	HYSTRIXS DAN
-0.7781513	I DPR
-0.7781513	I GDE
-0.7781513	I MADE
-0.90309	IA DICALONKAN
-0.90309	IA JUGA
-0.90309	IA MENARGETKAN
-0.90309	IA SEMPAT
-0.60206	IBADAH MALAM
-0.60206	IBADAH WAJIB
-0.30103	ICW DAN
-0.30103	IDE KONFRONTATIF
-0.30103	IDRIS MARZUKI
-0.30103	IGNATIUS COLLEGE
-0.30103	IHSAN MENGATAKAN
-0.30103	IHZA MAHENDRA
-0.30103	III DI
-0.30103	IKANG FAWZY
-0.30103	ILEGAL </s>
-1	IMAM CS
-1	IMAM DARUQUTNI
-1	IMAM SAMUDRA
-1	IMAM SEDANG
-1	IMAM YANG
-0.30103	INDAH </s>
-0.30103	INDIA MENGENAI
-0.845098	INDONESIA </s>
-1.322219	INDONESIA ANTARA
-1.322219	INDONESIA ATAU
-1.322219	INDONESIA DARI
-1.322219	INDONESIA DIPERKIRAKAN
-1.322219	INDONESIA DITANGKAP
-1.322219	INDONESIA MEMILIH
-1.322219	INDONESIA TAMPIL
-1.021189	INDONESIA YANG
-0.30103	INDRA JATI
-0.30103	INDUSTRI </s>
-0.30103	INGGRIS BERKAT
-0.60206	INGIN DITUJU
-0.60206	INGIN LAGI
-0.30103	INGKAR JANJI
-1.30103	INI </s>
-1.124939	INI AKAN
-1.60206	INI BPPN
-1.30103	INI BUKAN
-1.60206	INI DI
-1.60206	INI DIKATAKAN
-1.60206	INI JAFAR
-1.60206	INI KEBOHONGAN
-1.60206	INI MENURUT
-1.60206	INI MERUPAKAN
-1.60206	INI PERATURAN
-1.60206	INI SEBELUMNYA
-1.60206	INI SECARA
-1.60206	INI SUDAH
-1.60206	INI TERJADI
-1.60206	INI TERSAMBAR
-1.60206	INI TIDAK
-1.60206	INI TOMMY
-0.60206	INSIDEN BERMULA
-0.60206	INSIDEN TERSEBUT
-0.30103	INSTALASI YANG
-0.7781513	INTERNASIONAL </s>
-0.7781513	INTERNASIONAL DI
-0.7781513	INTERNASIONAL NINOY
-0.30103	INTERUPSI YANG
-0.30103	INVESTASI ASING
-0.30103	INVESTIGASI PENUH
-0.60206	IQBAL </s>
-0.60206	IQBAL SUDAH
-0.30103	IQRA TERBUKTI
-0.30103	IQTISSADIA MEMBERITAKAN
-0.30103	IRAK </s>
-0.30103	IRAMA DAN
-0.30103	IRGUN ZVAI
-0.30103	ISLAM DAN
-0.60206	ISLAMABAD KHOTBAH
-0.60206	ISLAMABAD PAKISTAN
-0.7781513	ISMAIL </s>
-0.7781513	ISMAIL BELUM
-0.7781513	ISMAIL MENGATAKAN
-0.30103	ISRAEL IRGUN
-0.30103	ISTIQLAL </s>
-0.30103	ISTIRAHAT DAN
-0.30103	ISTRINYA SENDIRI
-0.30103	ITECEZET </s>
-1.054358	ITU </s>
-1.832509	ITU ADALAH
-1.832509	ITU ANGGOTA
-1.531479	ITU DAN
-1.832509	ITU DIBACAKAN
-1.832509	ITU DIBAWA
-1.832509	ITU DILAKUKAN
-1.832509	ITU DIRINGKUS
-1.832509	ITU DISERBU
-1.832509	ITU FATWA
-1.832509	ITU ILEGAL
-1.832509	ITU LANGSUNG
-1.832509	ITU MANAKALA
-1.832509	ITU MASIH
-1.832509	ITU MEMACETKAN
-1.832509	ITU MEMBUAT
